{"learner":{"attributes":{"scikit_learn":"{\"_estimator_type\": \"classifier\"}"},"feature_names":["file_read_count","file_write_count","file_delete_count","file_rename_count","file_encrypt_like_count","changed_files_count","random_extension_flag","entropy_diff_mean","file_size_diff_mean"],"feature_types":["int","int","int","int","int","int","int","float","float"],"gradient_booster":{"model":{"gbtree_model_param":{"num_parallel_tree":"1","num_trees":"400"},"iteration_indptr":[0,1,2,3,4,5,6,7,8,9,10,11,12,13,14,15,16,17,18,19,20,21,22,23,24,25,26,27,28,29,30,31,32,33,34,35,36,37,38,39,40,41,42,43,44,45,46,47,48,49,50,51,52,53,54,55,56,57,58,59,60,61,62,63,64,65,66,67,68,69,70,71,72,73,74,75,76,77,78,79,80,81,82,83,84,85,86,87,88,89,90,91,92,93,94,95,96,97,98,99,100,101,102,103,104,105,106,107,108,109,110,111,112,113,114,115,116,117,118,119,120,121,122,123,124,125,126,127,128,129,130,131,132,133,134,135,136,137,138,139,140,141,142,143,144,145,146,147,148,149,150,151,152,153,154,155,156,157,158,159,160,161,162,163,164,165,166,167,168,169,170,171,172,173,174,175,176,177,178,179,180,181,182,183,184,185,186,187,188,189,190,191,192,193,194,195,196,197,198,199,200,201,202,203,204,205,206,207,208,209,210,211,212,213,214,215,216,217,218,219,220,221,222,223,224,225,226,227,228,229,230,231,232,233,234,235,236,237,238,239,240,241,242,243,244,245,246,247,248,249,250,251,252,253,254,255,256,257,258,259,260,261,262,263,264,265,266,267,268,269,270,271,272,273,274,275,276,277,278,279,280,281,282,283,284,285,286,287,288,289,290,291,292,293,294,295,296,297,298,299,300,301,302,303,304,305,306,307,308,309,310,311,312,313,314,315,316,317,318,319,320,321,322,323,324,325,326,327,328,329,330,331,332,333,334,335,336,337,338,339,340,341,342,343,344,345,346,347,348,349,350,351,352,353,354,355,356,357,358,359,360,361,362,363,364,365,366,367,368,369,370,371,372,373,374,375,376,377,378,379,380,381,382,383,384,385,386,387,388,389,390,391,392,393,394,395,396,397,398,399,400],"tree_info":[0,0,0,0,0,0,0,0,0,0,0,0,0,0,0,0,0,0,0,0,0,0,0,0,0,0,0,0,0,0,0,0,0,0,0,0,0,0,0,0,0,0,0,0,0,0,0,0,0,0,0,0,0,0,0,0,0,0,0,0,0,0,0,0,0,0,0,0,0,0,0,0,0,0,0,0,0,0,0,0,0,0,0,0,0,0,0,0,0,0,0,0,0,0,0,0,0,0,0,0,0,0,0,0,0,0,0,0,0,0,0,0,0,0,0,0,0,0,0,0,0,0,0,0,0,0,0,0,0,0,0,0,0,0,0,0,0,0,0,0,0,0,0,0,0,0,0,0,0,0,0,0,0,0,0,0,0,0,0,0,0,0,0,0,0,0,0,0,0,0,0,0,0,0,0,0,0,0,0,0,0,0,0,0,0,0,0,0,0,0,0,0,0,0,0,0,0,0,0,0,0,0,0,0,0,0,0,0,0,0,0,0,0,0,0,0,0,0,0,0,0,0,0,0,0,0,0,0,0,0,0,0,0,0,0,0,0,0,0,0,0,0,0,0,0,0,0,0,0,0,0,0,0,0,0,0,0,0,0,0,0,0,0,0,0,0,0,0,0,0,0,0,0,0,0,0,0,0,0,0,0,0,0,0,0,0,0,0,0,0,0,0,0,0,0,0,0,0,0,0,0,0,0,0,0,0,0,0,0,0,0,0,0,0,0,0,0,0,0,0,0,0,0,0,0,0,0,0,0,0,0,0,0,0,0,0,0,0,0,0,0,0,0,0,0,0,0,0,0,0,0,0,0,0,0,0,0,0,0,0,0,0,0,0,0,0,0,0,0,0,0,0,0,0,0,0,0,0,0,0,0,0,0,0,0,0,0,0,0,0,0,0,0,0,0,0,0,0,0,0],"trees":[{"base_weights":[-1.05183035E-1,-8.8733786E-1,2.8086407E0,-1.167767E0,1.8943826E0,1.0975618E-1,3.3591032E0,-1.263323E0,-4.342699E-1,2.6292167E0,1.8493886E-1,-1.2930316E-1,2.4294407E0,2.3817022E0,3.5339446E0,-6.445163E-2,-4.031846E-2,8.3969325E-2,-4.349101E-2,8.472132E-2,1.7319942E-1,-3.422366E-2,9.829986E-2,-2.7114669E-2,5.0219752E-2,1.0778246E-2,1.3824691E-1,1.5158056E-1,2.3569696E-2,1.5416972E-1,1.8230684E-1],"categories":[],"categories_nodes":[],"categories_segments":[],"categories_sizes":[],"default_left":[0,0,0,0,0,0,0,0,0,0,0,0,0,0,0,0,0,0,0,0,0,0,0,0,0,0,0,0,0,0,0],"id":0,"left_children":[1,3,5,7,9,11,13,15,17,19,21,23,25,27,29,-1,-1,-1,-1,-1,-1,-1,-1,-1,-1,-1,-1,-1,-1,-1,-1],"loss_changes":[8.573606E3,2.315678E3,1.1823672E3,1.8832397E2,3.4116003E2,7.567712E1,1.04578125E2,2.6963379E1,2.8879477E2,1.4250037E2,1.2962338E2,5.8674206E1,8.872215E0,1.26944214E2,1.7003906E1,0E0,0E0,0E0,0E0,0E0,0E0,0E0,0E0,0E0,0E0,0E0,0E0,0E0,0E0,0E0,0E0],"parents":[2147483647,0,0,1,1,2,2,3,3,4,4,5,5,6,6,7,7,8,8,9,9,10,10,11,11,12,12,13,13,14,14],"right_children":[2,4,6,8,10,12,14,16,18,20,22,24,26,28,30,-1,-1,-1,-1,-1,-1,-1,-1,-1,-1,-1,-1,-1,-1,-1,-1],"split_conditions":[1E0,1.2E1,8E0,1E1,6E0,2E0,1E1,2E0,3E0,1.4E1,1.5E1,4E0,2E0,4E0,6E0,-6.445163E-2,-4.031846E-2,8.3969325E-2,-4.349101E-2,8.472132E-2,1.7319942E-1,-3.422366E-2,9.829986E-2,-2.7114669E-2,5.0219752E-2,1.0778246E-2,1.3824691E-1,1.5158056E-1,2.3569696E-2,1.5416972E-1,1.8230684E-1],"split_indices":[4,5,5,5,0,3,5,3,0,5,5,1,1,0,1,0,0,0,0,0,0,0,0,0,0,0,0,0,0,0,0],"split_type":[0,0,0,0,0,0,0,0,0,0,0,0,0,0,0,0,0,0,0,0,0,0,0,0,0,0,0,0,0,0,0],"sum_hessian":[3.7598093E3,2.9646948E3,7.951146E2,2.6937175E3,2.7097723E2,1.3490125E2,6.602134E2,2.3826028E3,3.1111478E2,1.8913585E2,8.184139E1,1.2315368E2,1.1747568E1,1.0239964E2,5.578137E2,2.2539668E3,1.2863588E2,5.2668266E1,2.584465E2,9.065207E1,9.848378E1,5.5409367E1,2.643203E1,9.065207E1,3.2501606E1,1.7621353E0,9.985434E0,7.596761E1,2.643203E1,1.16888306E2,4.409254E2],"tree_param":{"num_deleted":"0","num_feature":"9","num_nodes":"31","size_leaf_vector":"1"}},{"base_weights":[-8.796837E-2,-8.8001287E-1,2.3145037E0,-1.1140829E0,1.7702933E-2,1.4106374E0,2.869316E0,-1.1614854E0,-2.7708566E-1,-3.0278525E-1,1.4962691E0,7.746505E-1,2.5092444E0,2.1739004E0,3.0822105E0,-6.2402207E-2,-4.5412987E-2,-4.1924097E-2,1.9450692E-2,-3.4140904E-2,3.0955479E-2,1.6184527E-2,1.00707844E-1,-1.2354159E-2,7.238024E-2,9.251766E-2,1.5624414E-1,4.961592E-2,1.420344E-1,1.2223623E-1,1.5912111E-1],"categories":[],"categories_nodes":[],"categories_segments":[],"categories_sizes":[],"default_left":[0,0,0,0,0,0,0,0,0,0,0,0,0,0,0,0,0,0,0,0,0,0,0,0,0,0,0,0,0,0,0],"id":1,"left_children":[1,3,5,7,9,11,13,15,17,19,21,23,25,27,29,-1,-1,-1,-1,-1,-1,-1,-1,-1,-1,-1,-1,-1,-1,-1,-1],"loss_changes":[7.1798506E3,5.962766E2,4.6509766E2,8.897803E1,2.7900784E2,2.480492E2,7.898096E1,4.5549072E1,4.5928772E1,1.6997511E2,6.3042343E1,1.5716586E2,4.7250854E1,1.0672516E2,2.0372559E1,0E0,0E0,0E0,0E0,0E0,0E0,0E0,0E0,0E0,0E0,0E0,0E0,0E0,0E0,0E0,0E0],"parents":[2147483647,0,0,1,1,2,2,3,3,4,4,5,5,6,6,7,7,8,8,9,9,10,10,11,11,12,12,13,13,14,14],"right_children":[2,4,6,8,10,12,14,16,18,20,22,24,26,28,30,-1,-1,-1,-1,-1,-1,-1,-1,-1,-1,-1,-1,-1,-1,-1,-1],"split_conditions":[1.1E1,9E0,1.3E1,2E0,2E0,2E0,7E0,4E0,3E0,6E0,4E0,6E0,1E0,2E0,1E0,-6.2402207E-2,-4.5412987E-2,-4.1924097E-2,1.9450692E-2,-3.4140904E-2,3.0955479E-2,1.6184527E-2,1.00707844E-1,-1.2354159E-2,7.238024E-2,9.251766E-2,1.5624414E-1,4.961592E-2,1.420344E-1,1.2223623E-1,1.5912111E-1],"split_indices":[5,5,5,3,3,3,1,1,1,1,1,1,2,3,3,0,0,0,0,0,0,0,0,0,0,0,0,0,0,0,0],"split_type":[0,0,0,0,0,0,0,0,0,0,0,0,0,0,0,0,0,0,0,0,0,0,0,0,0,0,0,0,0,0,0],"sum_hessian":[3.7711096E3,2.836582E3,9.345278E2,2.2497437E3,5.8683826E2,3.567976E2,5.777301E2,2.128794E3,1.20949745E2,4.8295096E2,1.0388732E2,2.2705812E2,1.297395E2,1.3803923E2,4.396909E2,1.5835643E3,5.4522955E2,6.549284E1,5.5456905E1,3.4216113E2,1.4078981E2,3.232454E1,7.156278E1,9.041522E1,1.366429E2,6.460313E1,6.5136375E1,5.0694355E1,8.734487E1,6.3178997E1,3.765119E2],"tree_param":{"num_deleted":"0","num_feature":"9","num_nodes":"31","size_leaf_vector":"1"}},{"base_weights":[-8.830493E-2,-8.471604E-1,2.4125142E0,-1.1204362E0,1.5542171E0,3.2992405E-1,2.7780025E0,-1.214317E0,-4.3863496E-1,2.3818135E0,5.127304E-1,6.760135E-2,2.341701E0,1.798318E0,2.8430846E0,-6.398994E-2,-5.113087E-2,3.9067224E-2,-5.312578E-2,7.741194E-2,1.3329247E-1,-2.168056E-2,1.0431645E-1,-3.4104474E-2,3.5477366E-2,3.0146945E-2,1.2617497E-1,1.2211817E-1,-8.3209155E-3,1.4657864E-1,1.2663174E-1],"categories":[],"categories_nodes":[],"categories_segments":[],"categories_sizes":[],"default_left":[0,0,0,0,0,0,0,0,0,0,0,0,0,0,0,0,0,0,0,0,0,0,0,0,0,0,0,0,0,0,0],"id":2,"left_children":[1,3,5,7,9,11,13,15,17,19,21,23,25,27,29,-1,-1,-1,-1,-1,-1,-1,-1,-1,-1,-1,-1,-1,-1,-1,-1],"loss_changes":[7.065333E3,1.8760784E3,6.588013E2,1.6364429E2,2.5067126E2,6.872858E1,4.1890137E1,2.698462E1,2.3830048E2,3.43631E1,1.9549925E2,5.655356E1,3.2287674E0,6.195883E1,1.1518066E1,0E0,0E0,0E0,0E0,0E0,0E0,0E0,0E0,0E0,0E0,0E0,0E0,0E0,0E0,0E0,0E0],"parents":[2147483647,0,0,1,1,2,2,3,3,4,4,5,5,6,6,7,7,8,8,9,9,10,10,11,11,12,12,13,13,14,14],"right_children":[2,4,6,8,10,12,14,16,18,20,22,24,26,28,30,-1,-1,-1,-1,-1,-1,-1,-1,-1,-1,-1,-1,-1,-1,-1,-1],"split_conditions":[1E0,1.2E1,8E0,1E1,5E0,2E0,9E0,8E0,4E0,1.3E1,1.5E1,3E0,2E0,4E0,5E0,-6.398994E-2,-5.113087E-2,3.9067224E-2,-5.312578E-2,7.741194E-2,1.3329247E-1,-2.168056E-2,1.0431645E-1,-3.4104474E-2,3.5477366E-2,3.0146945E-2,1.2617497E-1,1.2211817E-1,-8.3209155E-3,1.4657864E-1,1.2663174E-1],"split_indices":[4,5,5,5,0,3,5,5,0,5,5,1,1,0,0,0,0,0,0,0,0,0,0,0,0,0,0,0,0,0,0],"split_type":[0,0,0,0,0,0,0,0,0,0,0,0,0,0,0,0,0,0,0,0,0,0,0,0,0,0,0,0,0,0,0],"sum_hessian":[3.720908E3,2.855184E3,8.657238E2,2.5639421E3,2.912421E2,1.2953316E2,7.361906E2,2.2529417E3,3.1100046E2,1.615682E2,1.2967389E2,1.1550558E2,1.4027576E1,4.764343E1,6.8854724E2,1.675082E3,5.778597E2,1.05143394E2,2.0585706E2,4.2701298E1,1.18866905E2,8.142837E1,4.824551E1,5.3252544E1,6.225303E1,1.7364352E0,1.2291141E1,3.5698334E1,1.1945096E1,5.2925073E2,1.592965E2],"tree_param":{"num_deleted":"0","num_feature":"9","num_nodes":"31","size_leaf_vector":"1"}},{"base_weights":[-9.464667E-2,-8.261484E-1,2.180936E0,-1.0928404E0,1.3871098E0,1.7752975E-1,2.5174856E0,-1.1902491E0,-4.0901887E-1,5.801877E-1,2.2209666E0,-5.2235013E-1,8.014762E-1,1.991198E0,2.6345997E0,-6.0920883E-2,-3.5964236E-2,-3.5351474E-2,4.119016E-2,1.5628213E-3,9.889032E-2,5.7196815E-2,1.2410736E-1,-3.5918806E-2,6.505729E-2,1.4412643E-2,8.213373E-2,4.1121397E-2,1.2315982E-1,8.88496E-2,1.3236561E-1],"categories":[],"categories_nodes":[],"categories_segments":[],"categories_sizes":[],"default_left":[0,0,0,0,0,0,0,0,0,0,0,0,0,0,0,0,0,0,0,0,0,0,0,0,0,0,0,0,0,0,0],"id":3,"left_children":[1,3,5,7,9,11,13,15,17,19,21,23,25,27,29,-1,-1,-1,-1,-1,-1,-1,-1,-1,-1,-1,-1,-1,-1,-1,-1],"loss_changes":[6.1703354E3,1.6571913E3,6.0754004E2,1.6629956E2,2.0197388E2,5.7523907E1,4.2333984E1,2.8192627E1,1.15844025E2,1.1875959E2,3.8852356E1,2.3182415E1,2.9543972E1,7.774902E1,2.1469727E0,0E0,0E0,0E0,0E0,0E0,0E0,0E0,0E0,0E0,0E0,0E0,0E0,0E0,0E0,0E0,0E0],"parents":[2147483647,0,0,1,1,2,2,3,3,4,4,5,5,6,6,7,7,8,8,9,9,10,10,11,11,12,12,13,13,14,14],"right_children":[2,4,6,8,10,12,14,16,18,20,22,24,26,28,30,-1,-1,-1,-1,-1,-1,-1,-1,-1,-1,-1,-1,-1,-1,-1,-1],"split_conditions":[1E0,1.2E1,8E0,1E1,2E0,3E0,1E0,2E0,2E0,9E0,6E0,2E0,1E0,6E0,3E0,-6.0920883E-2,-3.5964236E-2,-3.5351474E-2,4.119016E-2,1.5628213E-3,9.889032E-2,5.7196815E-2,1.2410736E-1,-3.5918806E-2,6.505729E-2,1.4412643E-2,8.213373E-2,4.1121397E-2,1.2315982E-1,8.88496E-2,1.3236561E-1],"split_indices":[4,5,5,5,3,1,3,3,3,1,1,3,3,1,1,0,0,0,0,0,0,0,0,0,0,0,0,0,0,0,0],"split_type":[0,0,0,0,0,0,0,0,0,0,0,0,0,0,0,0,0,0,0,0,0,0,0,0,0,0,0,0,0,0,0],"sum_hessian":[3.7047314E3,2.8040024E3,9.00729E2,2.502914E3,3.0108853E2,1.2976913E2,7.7095984E2,2.1901865E3,3.1272745E2,1.5387738E2,1.4721114E2,6.1239594E1,6.852954E1,1.4360942E2,6.2735046E2,2.065086E3,1.2510065E2,2.5219156E2,6.053587E1,1.1121769E2,4.26597E1,2.9781416E1,1.1742972E2,5.584256E1,5.3970356E0,4.3395935E1,2.513361E1,4.2100903E1,1.01508514E2,1.121987E1,6.1613055E2],"tree_param":{"num_deleted":"0","num_feature":"9","num_nodes":"31","size_leaf_vector":"1"}},{"base_weights":[-8.0031924E-2,-8.096039E-1,2.0209036E0,-1.0761733E0,1.2853483E0,2.2791249E-1,2.31378E0,-1.146467E0,-2.0755833E-1,1.7945008E0,-1.9476404E-2,-1.058139E-1,1.4274241E0,1.4085401E0,2.3746092E0,-5.886482E-2,-6.6200607E-3,-4.3379385E-2,3.3846553E-2,5.8742423E-2,1.1632966E-1,-2.8500421E-2,9.81451E-2,-1.5464695E-2,8.5959345E-2,9.563989E-2,7.2822594E-3,9.66269E-2,-5.780769E-3,9.791799E-2,1.2141111E-1],"categories":[],"categories_nodes":[],"categories_segments":[],"categories_sizes":[],"default_left":[0,0,0,0,0,0,0,0,0,0,0,0,0,0,0,0,0,0,0,0,0,0,0,0,0,0,0,0,0,0,0],"id":4,"left_children":[1,3,5,7,9,11,13,15,17,19,21,23,25,27,29,-1,-1,-1,-1,-1,-1,-1,-1,-1,-1,-1,-1,-1,-1,-1,-1],"loss_changes":[5.6061875E3,1.5174099E3,4.945327E2,1.4683984E2,2.0392041E2,5.3584385E1,4.127246E1,6.950586E1,1.0658162E2,7.0055176E1,9.620793E1,3.9656494E1,1.7839725E1,4.293315E1,1.2155762E1,0E0,0E0,0E0,0E0,0E0,0E0,0E0,0E0,0E0,0E0,0E0,0E0,0E0,0E0,0E0,0E0],"parents":[2147483647,0,0,1,1,2,2,3,3,4,4,5,5,6,6,7,7,8,8,9,9,10,10,11,11,12,12,13,13,14,14],"right_children":[2,4,6,8,10,12,14,16,18,20,22,24,26,28,30,-1,-1,-1,-1,-1,-1,-1,-1,-1,-1,-1,-1,-1,-1,-1,-1],"split_conditions":[1E0,1.2E1,8E0,2E0,6E0,1E0,9E0,7E0,4E0,1.4E1,1.6E1,2E0,3E0,4E0,5E0,-5.886482E-2,-6.6200607E-3,-4.3379385E-2,3.3846553E-2,5.8742423E-2,1.1632966E-1,-2.8500421E-2,9.81451E-2,-1.5464695E-2,8.5959345E-2,9.563989E-2,7.2822594E-3,9.66269E-2,-5.780769E-3,9.791799E-2,1.2141111E-1],"split_indices":[4,5,5,3,0,2,5,1,1,5,5,3,0,0,1,0,0,0,0,0,0,0,0,0,0,0,0,0,0,0,0],"split_type":[0,0,0,0,0,0,0,0,0,0,0,0,0,0,0,0,0,0,0,0,0,0,0,0,0,0,0,0,0,0,0],"sum_hessian":[3.6554521E3,2.7137043E3,9.417478E2,2.407812E3,3.0589243E2,1.3248035E2,8.0926746E2,2.2272493E3,1.8056273E2,2.1976369E2,8.612874E1,1.0435784E2,2.8122501E1,5.247711E1,7.5679034E2,2.1613787E3,6.587071E1,1.0341261E2,7.7150116E1,1.0301027E2,1.1675342E2,6.7966125E1,1.8162607E1,9.4636765E1,9.721082E0,2.0041174E1,8.081328E0,3.885202E1,1.362509E1,9.063441E1,6.6615594E2],"tree_param":{"num_deleted":"0","num_feature":"9","num_nodes":"31","size_leaf_vector":"1"}},{"base_weights":[-9.000236E-2,-7.835305E-1,1.8697028E0,-1.0530723E0,1.2467605E0,1.790288E-1,2.1465533E0,-1.1522216E0,-3.8049033E-1,1.9190003E0,3.822672E-1,6.380534E-1,-6.190677E-1,1.7714112E0,1.1349147E-1,-6.135559E-2,-4.8623726E-2,3.8174268E-2,-4.9548972E-2,6.869682E-2,1.05690315E-1,-2.0950258E-2,8.277052E-2,-1.585937E-2,7.6574646E-2,-4.130299E-2,-1.5249818E-2,1.0755511E-1,2.1586087E-2],"categories":[],"categories_nodes":[],"categories_segments":[],"categories_sizes":[],"default_left":[0,0,0,0,0,0,0,0,0,0,0,0,0,0,0,0,0,0,0,0,0,0,0,0,0,0,0,0,0],"id":5,"left_children":[1,3,5,7,9,11,13,15,17,19,21,23,25,27,-1,-1,-1,-1,-1,-1,-1,-1,-1,-1,-1,-1,-1,-1,-1],"loss_changes":[4.931956E3,1.4680406E3,4.4359668E2,1.5738135E2,1.8208206E2,4.9690956E1,3.366919E1,2.6564697E1,2.1414523E2,1.5859924E1,1.4234932E2,7.38142E1,2.9752388E0,1.0392218E2,0E0,0E0,0E0,0E0,0E0,0E0,0E0,0E0,0E0,0E0,0E0,0E0,0E0,0E0,0E0],"parents":[2147483647,0,0,1,1,2,2,3,3,4,4,5,5,6,6,7,7,8,8,9,9,10,10,11,11,12,12,13,13],"right_children":[2,4,6,8,10,12,14,16,18,20,22,24,26,28,-1,-1,-1,-1,-1,-1,-1,-1,-1,-1,-1,-1,-1,-1,-1],"split_conditions":[1E0,1.2E1,8E0,1E1,5E0,3E0,1.1E1,4E0,4E0,1.3E1,1.5E1,6E0,7E0,4E0,1.1349147E-1,-6.135559E-2,-4.8623726E-2,3.8174268E-2,-4.9548972E-2,6.869682E-2,1.05690315E-1,-2.0950258E-2,8.277052E-2,-1.585937E-2,7.6574646E-2,-4.130299E-2,-1.5249818E-2,1.0755511E-1,2.1586087E-2],"split_indices":[4,5,5,5,0,0,5,1,0,5,5,5,5,0,0,0,0,0,0,0,0,0,0,0,0,0,0,0,0],"split_type":[0,0,0,0,0,0,0,0,0,0,0,0,0,0,0,0,0,0,0,0,0,0,0,0,0,0,0,0,0],"sum_hessian":[3.6267336E3,2.6791858E3,9.4754785E2,2.3656084E3,3.1357742E2,1.3356122E2,8.1398663E2,2.0610623E3,3.0454596E2,1.757176E2,1.378598E2,8.4920044E1,4.864117E1,2.0512828E2,6.0885834E2,1.4507789E3,6.102834E2,1.05883575E2,1.986624E2,4.8386314E1,1.273313E2,8.5021255E1,5.283855E1,4.135229E1,4.3567753E1,2.833592E1,2.0305252E1,1.5935785E2,4.5770428E1],"tree_param":{"num_deleted":"0","num_feature":"9","num_nodes":"29","size_leaf_vector":"1"}},{"base_weights":[-8.211873E-2,-7.65999E-1,1.7709371E0,-1.0335258E0,1.1789839E0,1.7039402E-1,2.0278518E0,-1.1768324E0,-5.5401874E-1,1.5975462E0,9.352918E-2,-1.7047212E-1,1.3575227E0,1.7018389E0,2.136466E0,-5.9819337E-2,-4.9141433E-2,4.2930417E-2,-4.4125926E-2,4.0146947E-2,9.472503E-2,-2.535965E-2,8.892515E-2,-3.535438E-2,1.3153696E-2,-1.9684164E-2,9.009807E-2,9.696834E-2,-2.7554152E-3,1.0779804E-1,8.660248E-2],"categories":[],"categories_nodes":[],"categories_segments":[],"categories_sizes":[],"default_left":[0,0,0,0,0,0,0,0,0,0,0,0,0,0,0,0,0,0,0,0,0,0,0,0,0,0,0,0,0,0,0],"id":6,"left_children":[1,3,5,7,9,11,13,15,17,19,21,23,25,27,29,-1,-1,-1,-1,-1,-1,-1,-1,-1,-1,-1,-1,-1,-1,-1,-1],"loss_changes":[4.4754253E3,1.3434078E3,3.9112476E2,1.552041E2,1.4176761E2,5.3956856E1,2.5408447E1,5.4453125E0,2.4381201E2,5.1658264E1,8.99679E1,2.4390574E1,2.384827E1,8.7701294E1,1.0856934E0,0E0,0E0,0E0,0E0,0E0,0E0,0E0,0E0,0E0,0E0,0E0,0E0,0E0,0E0,0E0,0E0],"parents":[2147483647,0,0,1,1,2,2,3,3,4,4,5,5,6,6,7,7,8,8,9,9,10,10,11,11,12,12,13,13,14,14],"right_children":[2,4,6,8,10,12,14,16,18,20,22,24,26,28,30,-1,-1,-1,-1,-1,-1,-1,-1,-1,-1,-1,-1,-1,-1,-1,-1],"split_conditions":[1E0,1.2E1,8E0,9E0,6E0,1E0,1.1E1,5E0,3E0,1.3E1,1.6E1,3E0,2E0,5E0,7E0,-5.9819337E-2,-4.9141433E-2,4.2930417E-2,-4.4125926E-2,4.0146947E-2,9.472503E-2,-2.535965E-2,8.892515E-2,-3.535438E-2,1.3153696E-2,-1.9684164E-2,9.009807E-2,9.696834E-2,-2.7554152E-3,1.0779804E-1,8.660248E-2],"split_indices":[4,5,5,5,0,2,5,1,0,5,5,1,1,0,0,0,0,0,0,0,0,0,0,0,0,0,0,0,0,0,0],"split_type":[0,0,0,0,0,0,0,0,0,0,0,0,0,0,0,0,0,0,0,0,0,0,0,0,0,0,0,0,0,0,0],"sum_hessian":[3.5294824E3,2.5784705E3,9.510119E2,2.2671052E3,3.113652E2,1.3176949E2,8.192424E2,1.7443353E3,5.2276996E2,2.2437296E2,8.699225E1,1.0303962E2,2.8729874E1,2.0889561E2,6.103468E2,1.5799224E3,1.6441295E2,9.832698E1,4.24443E2,6.204724E1,1.6232571E2,6.46444E1,2.2347849E1,4.576442E1,5.7275196E1,5.8385677E0,2.2891306E1,1.8392616E2,2.496946E1,5.781463E2,3.2200478E1],"tree_param":{"num_deleted":"0","num_feature":"9","num_nodes":"31","size_leaf_vector":"1"}},{"base_weights":[-8.799201E-2,-7.607625E-1,1.6544852E0,-1.0219525E0,1.0850012E0,-2.417576E-1,1.8461521E0,-1.1233888E0,-3.453487E-1,-2.5610322E-1,1.4610912E0,-7.796819E-1,3.6653116E-1,1.0800539E0,1.9427308E0,-5.749309E-2,-3.4520738E-2,6.136483E-2,-3.746127E-2,-3.5941765E-2,5.2885383E-2,4.0601462E-2,9.335636E-2,-5.1004536E-2,-9.488247E-3,3.5612274E-2,-6.2497905E-3,9.0211116E-2,3.8557798E-3,1.0077915E-1,8.464693E-2],"categories":[],"categories_nodes":[],"categories_segments":[],"categories_sizes":[],"default_left":[0,0,0,0,0,0,0,0,0,0,0,0,0,0,0,0,0,0,0,0,0,0,0,0,0,0,0,0,0,0,0],"id":7,"left_children":[1,3,5,7,9,11,13,15,17,19,21,23,25,27,29,-1,-1,-1,-1,-1,-1,-1,-1,-1,-1,-1,-1,-1,-1,-1,-1],"loss_changes":[4.1006763E3,1.217698E3,3.545857E2,1.5137354E2,1.5840433E2,2.9843567E1,6.338623E1,2.1241943E1,1.8494351E2,4.2995296E1,6.301123E1,6.650488E0,7.408413E0,7.346123E1,1.0868164E1,0E0,0E0,0E0,0E0,0E0,0E0,0E0,0E0,0E0,0E0,0E0,0E0,0E0,0E0,0E0,0E0],"parents":[2147483647,0,0,1,1,2,2,3,3,4,4,5,5,6,6,7,7,8,8,9,9,10,10,11,11,12,12,13,13,14,14],"right_children":[2,4,6,8,10,12,14,16,18,20,22,24,26,28,30,-1,-1,-1,-1,-1,-1,-1,-1,-1,-1,-1,-1,-1,-1,-1,-1],"split_conditions":[1E0,1.2E1,7E0,1E1,1E0,3E0,9E0,2E0,3E0,9E0,1E0,1E0,2E0,3E0,5E0,-5.749309E-2,-3.4520738E-2,6.136483E-2,-3.746127E-2,-3.5941765E-2,5.2885383E-2,4.0601462E-2,9.335636E-2,-5.1004536E-2,-9.488247E-3,3.5612274E-2,-6.2497905E-3,9.0211116E-2,3.8557798E-3,1.0077915E-1,8.464693E-2],"split_indices":[4,5,5,5,3,1,5,3,0,1,2,3,0,0,0,0,0,0,0,0,0,0,0,0,0,0,0,0,0,0,0],"split_type":[0,0,0,0,0,0,0,0,0,0,0,0,0,0,0,0,0,0,0,0,0,0,0,0,0,0,0,0,0,0,0],"sum_hessian":[3.495939E3,2.5225469E3,9.733921E2,2.2102288E3,3.1231827E2,8.933187E1,8.8406024E2,1.9214978E3,2.8873093E2,6.8472E1,2.4384625E2,4.7258385E1,4.2073483E1,1.00336586E2,7.8372363E2,1.809222E3,1.1227573E2,5.8581833E1,2.3014911E2,5.0972164E1,1.749984E1,9.4994415E1,1.4885184E2,3.3057323E1,1.4201061E1,2.4436844E1,1.763664E1,5.780195E1,4.253464E1,6.0128796E2,1.8243567E2],"tree_param":{"num_deleted":"0","num_feature":"9","num_nodes":"31","size_leaf_vector":"1"}},{"base_weights":[-8.532663E-2,-7.368644E-1,1.5541012E0,-1.04663E0,7.277119E-1,-2.6847312E-1,1.735138E0,-1.1417326E0,-6.5171224E-1,2.0279716E-1,1.5571468E0,-6.785787E-1,1.7271574E-1,9.7058433E-1,1.8326467E0,-5.8629937E-2,-4.829911E-2,-3.5372335E-2,5.618621E-2,-1.1314371E-3,8.8243775E-2,4.8245918E-2,9.05818E-2,-4.2100854E-2,9.5178215E-3,-3.213122E-2,2.1701429E-2,3.0512322E-2,7.817646E-2,8.15138E-2,9.720338E-2],"categories":[],"categories_nodes":[],"categories_segments":[],"categories_sizes":[],"default_left":[0,0,0,0,0,0,0,0,0,0,0,0,0,0,0,0,0,0,0,0,0,0,0,0,0,0,0,0,0,0,0],"id":8,"left_children":[1,3,5,7,9,11,13,15,17,19,21,23,25,27,29,-1,-1,-1,-1,-1,-1,-1,-1,-1,-1,-1,-1,-1,-1,-1,-1],"loss_changes":[3.6595425E3,1.1130007E3,3.219619E2,7.527368E1,1.8628696E2,1.6203203E1,6.430737E1,7.7089844E0,3.9896225E1,9.287311E1,2.3265259E1,6.7326546E0,9.573969E0,2.0923553E1,1.4532715E1,0E0,0E0,0E0,0E0,0E0,0E0,0E0,0E0,0E0,0E0,0E0,0E0,0E0,0E0,0E0,0E0],"parents":[2147483647,0,0,1,1,2,2,3,3,4,4,5,5,6,6,7,7,8,8,9,9,10,10,11,11,12,12,13,13,14,14],"right_children":[2,4,6,8,10,12,14,16,18,20,22,24,26,28,30,-1,-1,-1,-1,-1,-1,-1,-1,-1,-1,-1,-1,-1,-1,-1,-1],"split_conditions":[1E0,1.1E1,7E0,9E0,1.4E1,3E0,9E0,1E0,1E0,1E0,1E0,1E0,-5.2263416E-2,1E0,1E0,-5.8629937E-2,-4.829911E-2,-3.5372335E-2,5.618621E-2,-1.1314371E-3,8.8243775E-2,4.8245918E-2,9.05818E-2,-4.2100854E-2,9.5178215E-3,-3.213122E-2,2.1701429E-2,3.0512322E-2,7.817646E-2,8.15138E-2,9.720338E-2],"split_indices":[4,5,5,5,5,1,5,2,6,6,2,2,7,2,2,0,0,0,0,0,0,0,0,0,0,0,0,0,0,0,0],"split_type":[0,0,0,0,0,0,0,0,0,0,0,0,0,0,0,0,0,0,0,0,0,0,0,0,0,0,0,0,0,0,0],"sum_hessian":[3.4239873E3,2.4506184E3,9.733688E2,2.0230236E3,4.2759482E2,8.790535E1,8.8546344E2,1.6288739E3,3.9414972E2,2.6263104E2,1.6496376E2,4.527866E1,4.262669E1,1.0139468E2,7.840688E2,1.3807139E3,2.4816E2,3.827364E2,1.1413314E1,2.3037132E2,3.2259724E1,5.1021595E1,1.1394217E2,3.8136524E1,7.1421366E0,9.991695E0,3.2634995E1,6.432996E1,3.7064716E1,2.839569E2,5.0011185E2],"tree_param":{"num_deleted":"0","num_feature":"9","num_nodes":"31","size_leaf_vector":"1"}},{"base_weights":[-7.590808E-2,-7.0861864E-1,1.4823533E0,-9.381143E-1,1.05048E0,-1.9424891E-1,1.6168307E0,-1.0649312E0,1.6974655E-1,-1.1519962E-1,1.53322E0,-6.6456765E-1,1.6369945E0,1.0397798E0,1.775172E0,-5.4817624E-2,6.6190227E-3,-3.8197983E-2,4.424089E-2,-1.5017546E-2,8.280179E-2,5.411574E-2,9.309307E-2,-3.7482455E-2,4.6861384E-2,4.0030412E-2,9.27222E-2,1.1871282E-2,8.426676E-2,8.045536E-2,9.37392E-2],"categories":[],"categories_nodes":[],"categories_segments":[],"categories_sizes":[],"default_left":[0,0,0,0,0,0,0,0,0,0,0,0,0,0,0,0,0,0,0,0,0,0,0,0,0,0,0,0,0,0,0],"id":9,"left_children":[1,3,5,7,9,11,13,15,17,19,21,23,25,27,29,-1,-1,-1,-1,-1,-1,-1,-1,-1,-1,-1,-1,-1,-1,-1,-1],"loss_changes":[3.3164065E3,9.6676E2,2.1933057E2,2.975703E2,1.5579944E2,6.3979076E1,8.0331055E1,7.160449E1,1.4641168E2,2.7362494E1,2.6975342E1,8.717546E0,1.2816887E0,1.01153824E2,8.634277E0,0E0,0E0,0E0,0E0,0E0,0E0,0E0,0E0,0E0,0E0,0E0,0E0,0E0,0E0,0E0,0E0],"parents":[2147483647,0,0,1,1,2,2,3,3,4,4,5,5,6,6,7,7,8,8,9,9,10,10,11,11,12,12,13,13,14,14],"right_children":[2,4,6,8,10,12,14,16,18,20,22,24,26,28,30,-1,-1,-1,-1,-1,-1,-1,-1,-1,-1,-1,-1,-1,-1,-1,-1],"split_conditions":[1E0,7E0,3E0,2E0,1E0,2E0,1E0,2E0,4E0,2E0,1E0,2E0,2E0,6E0,1E0,-5.4817624E-2,6.6190227E-3,-3.8197983E-2,4.424089E-2,-1.5017546E-2,8.280179E-2,5.411574E-2,9.309307E-2,-3.7482455E-2,4.6861384E-2,4.0030412E-2,9.27222E-2,1.1871282E-2,8.426676E-2,8.045536E-2,9.37392E-2],"split_indices":[4,1,1,3,3,3,3,2,1,2,2,2,1,1,2,0,0,0,0,0,0,0,0,0,0,0,0,0,0,0,0],"split_type":[0,0,0,0,0,0,0,0,0,0,0,0,0,0,0,0,0,0,0,0,0,0,0,0,0,0,0,0,0,0,0],"sum_hessian":[3.3616738E3,2.391275E3,9.703989E2,2.1157205E3,2.7555453E2,7.2021614E1,8.983773E2,1.8984442E3,2.1727623E2,8.091916E1,1.9463539E2,5.7811073E1,1.4210539E1,1.9506369E2,7.0331366E2,1.8499791E3,4.8465122E1,9.420258E1,1.23073654E2,7.4012856E1,6.906304E0,8.386438E1,1.1077101E2,5.5400402E1,2.4106703E0,3.8982654E0,1.0312273E1,8.757964E1,1.0748404E2,2.7012967E2,4.3318396E2],"tree_param":{"num_deleted":"0","num_feature":"9","num_nodes":"31","size_leaf_vector":"1"}},{"base_weights":[-6.501924E-2,-6.830417E-1,1.4198173E0,-1.0082006E0,7.256707E-1,-1.910929E-1,1.5742095E0,-1.1059405E0,-6.067866E-1,1.1930787E-1,1.4496499E0,-7.5688833E-1,6.977758E-2,1.0796733E0,1.6988461E0,-5.772183E-2,-4.9395792E-2,6.2975525E-3,-5.5770893E-2,3.8879544E-2,-2.2343105E-2,8.331193E-2,4.5137275E-2,-2.8196145E-2,-4.858223E-2,2.778335E-2,-4.00733E-2,3.1542026E-2,7.752342E-2,5.4557372E-2,8.594432E-2],"categories":[],"categories_nodes":[],"categories_segments":[],"categories_sizes":[],"default_left":[0,0,0,0,0,0,0,0,0,0,0,0,0,0,0,0,0,0,0,0,0,0,0,0,0,0,0,0,0,0,0],"id":10,"left_children":[1,3,5,7,9,11,13,15,17,19,21,23,25,27,29,-1,-1,-1,-1,-1,-1,-1,-1,-1,-1,-1,-1,-1,-1,-1,-1],"loss_changes":[3.0150906E3,1.0633826E3,2.4046838E2,7.329602E1,1.9107207E2,1.2649895E1,5.2486572E1,7.5305176E0,1.3854872E2,8.91132E1,2.2005768E1,5.716734E-1,2.5561113E1,3.708809E1,6.675659E0,0E0,0E0,0E0,0E0,0E0,0E0,0E0,0E0,0E0,0E0,0E0,0E0,0E0,0E0,0E0,0E0],"parents":[2147483647,0,0,1,1,2,2,3,3,4,4,5,5,6,6,7,7,8,8,9,9,10,10,11,11,12,12,13,13,14,14],"right_children":[2,4,6,8,10,12,14,16,18,20,22,24,26,28,30,-1,-1,-1,-1,-1,-1,-1,-1,-1,-1,-1,-1,-1,-1,-1,-1],"split_conditions":[1E0,1.1E1,7E0,9E0,2E0,5E0,1E0,1E0,4E0,5E0,5E0,2E0,3E0,1.1E1,8E0,-5.772183E-2,-4.9395792E-2,6.2975525E-3,-5.5770893E-2,3.8879544E-2,-2.2343105E-2,8.331193E-2,4.5137275E-2,-2.8196145E-2,-4.858223E-2,2.778335E-2,-4.00733E-2,3.1542026E-2,7.752342E-2,5.4557372E-2,8.594432E-2],"split_indices":[4,5,5,5,3,5,3,3,0,0,0,0,0,5,5,0,0,0,0,0,0,0,0,0,0,0,0,0,0,0,0],"split_type":[0,0,0,0,0,0,0,0,0,0,0,0,0,0,0,0,0,0,0,0,0,0,0,0,0,0,0,0,0,0,0],"sum_hessian":[3.283564E3,2.318918E3,9.6464594E2,1.8842742E3,4.3464374E2,8.434647E1,8.8029944E2,1.5139011E3,3.7037305E2,2.3716933E2,1.9747443E2,2.6017145E1,5.832933E1,1.7914519E2,7.0115424E2,1.0667805E3,4.4712064E2,1.5206277E2,2.1831027E2,1.0949112E2,1.2767821E2,1.3998857E2,5.7485855E1,1.5613649E1,1.0403496E1,3.767842E1,2.0650906E1,9.290966E1,8.6235535E1,2.4154125E1,6.770001E2],"tree_param":{"num_deleted":"0","num_feature":"9","num_nodes":"31","size_leaf_vector":"1"}},{"base_weights":[-7.883715E-2,-7.1452993E-1,1.2500315E0,-1.0175934E0,-2.1872634E-1,1.4386456E0,3.9625752E-1,-1.0471693E0,-3.9521277E-1,8.3998525E-1,-6.817261E-1,1.0708444E0,1.653996E0,-6.7164916E-1,1.2764901E0,-5.4849118E-2,-4.2299006E-2,-4.0103924E-2,1.7678088E-2,1.5146545E-2,5.7676066E-2,-8.892852E-3,-4.623315E-2,7.309954E-2,1.8728033E-2,7.717095E-2,8.700149E-2,-4.8262764E-2,-1.7330445E-2,3.3816647E-2,8.3752535E-2],"categories":[],"categories_nodes":[],"categories_segments":[],"categories_sizes":[],"default_left":[0,0,0,0,0,0,0,0,0,0,0,0,0,0,0,0,0,0,0,0,0,0,0,0,0,0,0,0,0,0,0],"id":11,"left_children":[1,3,5,7,9,11,13,15,17,19,21,23,25,27,29,-1,-1,-1,-1,-1,-1,-1,-1,-1,-1,-1,-1,-1,-1,-1,-1],"loss_changes":[2.7110996E3,3.2595923E2,1.666637E2,2.4380981E1,4.0487433E2,6.55708E1,1.7879202E2,1.1952759E1,1.938895E1,4.1983246E1,7.014621E1,8.573459E1,2.3983154E0,7.8902016E0,2.3769608E1,0E0,0E0,0E0,0E0,0E0,0E0,0E0,0E0,0E0,0E0,0E0,0E0,0E0,0E0,0E0,0E0],"parents":[2147483647,0,0,1,1,2,2,3,3,4,4,5,5,6,6,7,7,8,8,9,9,10,10,11,11,12,12,13,13,14,14],"right_children":[2,4,6,8,10,12,14,16,18,20,22,24,26,28,30,-1,-1,-1,-1,-1,-1,-1,-1,-1,-1,-1,-1,-1,-1,-1,-1],"split_conditions":[1.1E1,8E0,6E0,2E0,3E0,1.3E1,1.4E1,4E0,3E0,9E0,4E0,4E0,1.5E1,1E0,1.6E1,-5.4849118E-2,-4.2299006E-2,-4.0103924E-2,1.7678088E-2,1.5146545E-2,5.7676066E-2,-8.892852E-3,-4.623315E-2,7.309954E-2,1.8728033E-2,7.717095E-2,8.700149E-2,-4.8262764E-2,-1.7330445E-2,3.3816647E-2,8.3752535E-2],"split_indices":[5,5,0,3,0,5,5,1,1,5,0,0,5,3,5,0,0,0,0,0,0,0,0,0,0,0,0,0,0,0,0],"split_type":[0,0,0,0,0,0,0,0,0,0,0,0,0,0,0,0,0,0,0,0,0,0,0,0,0,0,0,0,0,0,0],"sum_hessian":[3.207286E3,2.169785E3,1.0375009E3,1.345988E3,8.23797E2,8.492099E2,1.8829092E2,1.2842756E3,6.171238E1,2.5040283E2,5.7339417E2,3.158078E2,5.334021E2,8.518302E1,1.031079E2,1.0258341E3,2.5844156E2,3.993921E1,2.177317E1,9.30257E1,1.5737714E2,1.8708926E2,3.863049E2,2.0150824E2,1.1429957E2,2.4169589E2,2.9170618E2,4.372078E1,4.1462246E1,4.2223785E1,6.088412E1],"tree_param":{"num_deleted":"0","num_feature":"9","num_nodes":"31","size_leaf_vector":"1"}},{"base_weights":[-6.9342345E-2,-6.7171115E-1,1.3277128E0,-9.5729584E-1,4.7505873E-1,2.908125E-1,1.5149E0,-1.0079015E0,1.1671451E0,-4.8620263E-1,1.0353247E0,-2.1939376E-1,8.458924E-2,1.159506E0,1.610399E0,-5.2358776E-2,1.3399481E-2,1.6573053E-2,9.758531E-2,-3.159812E-2,6.614782E-2,2.6993662E-2,7.677228E-2,-2.0627728E-2,8.0052875E-2,3.0914003E-2,8.0370516E-2,6.6402756E-2,8.214643E-2],"categories":[],"categories_nodes":[],"categories_segments":[],"categories_sizes":[],"default_left":[0,0,0,0,0,0,0,0,0,0,0,0,0,0,0,0,0,0,0,0,0,0,0,0,0,0,0,0,0],"id":12,"left_children":[1,3,5,7,9,11,13,15,17,19,21,23,-1,25,27,-1,-1,-1,-1,-1,-1,-1,-1,-1,-1,-1,-1,-1,-1],"loss_changes":[2.6680408E3,7.25928E2,1.8495312E2,1.918811E2,2.3872815E2,1.0566061E2,2.558545E1,8.7125854E1,2.671624E1,4.3967186E1,6.849533E1,3.894138E1,0E0,4.1402557E1,3.6502686E0,0E0,0E0,0E0,0E0,0E0,0E0,0E0,0E0,0E0,0E0,0E0,0E0,0E0,0E0],"parents":[2147483647,0,0,1,1,2,2,3,3,4,4,5,5,6,6,7,7,8,8,9,9,10,10,11,11,13,13,14,14],"right_children":[2,4,6,8,10,12,14,16,18,20,22,24,-1,26,28,-1,-1,-1,-1,-1,-1,-1,-1,-1,-1,-1,-1,-1,-1],"split_conditions":[1E0,6E0,4E0,3E0,1E0,2E0,1E0,2E0,1E0,2E0,1E0,2E0,8.458924E-2,1E0,5E0,-5.2358776E-2,1.3399481E-2,1.6573053E-2,9.758531E-2,-3.159812E-2,6.614782E-2,2.6993662E-2,7.677228E-2,-2.0627728E-2,8.0052875E-2,3.0914003E-2,8.0370516E-2,6.6402756E-2,8.214643E-2],"split_indices":[4,1,1,3,3,3,3,2,2,2,2,2,0,2,1,0,0,0,0,0,0,0,0,0,0,0,0,0,0],"split_type":[0,0,0,0,0,0,0,0,0,0,0,0,0,0,0,0,0,0,0,0,0,0,0,0,0,0,0,0,0],"sum_hessian":[3.168358E3,2.2141858E3,9.541721E2,1.7728508E3,4.413349E2,1.4630228E2,8.078698E2,1.7321162E3,4.0734703E1,1.6255968E2,2.7877524E2,1.0786382E2,3.843846E1,1.7388998E2,6.3397986E2,1.680565E3,5.155128E1,2.0413507E1,2.0321196E1,1.510413E2,1.1518368E1,1.41086E2,1.3768924E2,9.8215904E1,9.64792E0,7.9819885E1,9.407011E1,6.981734E1,5.641625E2],"tree_param":{"num_deleted":"0","num_feature":"9","num_nodes":"29","size_leaf_vector":"1"}},{"base_weights":[-7.241859E-2,-6.5455157E-1,1.2590731E0,-9.666862E-1,6.142315E-1,1.2066076E-1,1.4444225E0,-1.0254341E0,-2.3569122E-1,6.778637E-2,1.2956548E0,-1.4779122E-1,1.0041168E0,1.1317986E0,1.5554928E0,-5.4958638E-2,-3.4228746E-2,-2.747052E-2,4.9170136E-2,-1.28602255E-2,6.250738E-2,4.1815516E-2,8.022968E-2,-1.7044282E-2,5.6439675E-2,2.4236392E-2,8.596077E-2,3.022633E-2,6.887919E-2,7.194801E-2,8.044805E-2],"categories":[],"categories_nodes":[],"categories_segments":[],"categories_sizes":[],"default_left":[0,0,0,0,0,0,0,0,0,0,0,0,0,0,0,0,0,0,0,0,0,0,0,0,0,0,0,0,0,0,0],"id":13,"left_children":[1,3,5,7,9,11,13,15,17,19,21,23,25,27,29,-1,-1,-1,-1,-1,-1,-1,-1,-1,-1,-1,-1,-1,-1,-1,-1],"loss_changes":[2.399346E3,8.5355E2,1.9852527E2,7.400549E1,1.5848096E2,3.1677979E1,2.6356445E1,3.946277E1,5.0224834E1,9.1538475E1,2.5544464E1,2.5733171E1,1.0721622E1,2.7152557E1,1.3907471E0,0E0,0E0,0E0,0E0,0E0,0E0,0E0,0E0,0E0,0E0,0E0,0E0,0E0,0E0,0E0,0E0],"parents":[2147483647,0,0,1,1,2,2,3,3,4,4,5,5,6,6,7,7,8,8,9,9,10,10,11,11,12,12,13,13,14,14],"right_children":[2,4,6,8,10,12,14,16,18,20,22,24,26,28,30,-1,-1,-1,-1,-1,-1,-1,-1,-1,-1,-1,-1,-1,-1,-1,-1],"split_conditions":[1E0,1.1E1,8E0,2E0,2E0,1E0,1.1E1,5E0,5E0,9E0,1E0,2E0,1E0,1E0,1E0,-5.4958638E-2,-3.4228746E-2,-2.747052E-2,4.9170136E-2,-1.28602255E-2,6.250738E-2,4.1815516E-2,8.022968E-2,-1.7044282E-2,5.6439675E-2,2.4236392E-2,8.596077E-2,3.022633E-2,6.887919E-2,7.194801E-2,8.044805E-2],"split_indices":[4,5,5,3,3,2,5,1,1,1,2,3,3,3,2,0,0,0,0,0,0,0,0,0,0,0,0,0,0,0,0],"split_type":[0,0,0,0,0,0,0,0,0,0,0,0,0,0,0,0,0,0,0,0,0,0,0,0,0,0,0,0,0,0,0],"sum_hessian":[3.0934468E3,2.1527605E3,9.406863E2,1.727913E3,4.2484756E2,1.3194336E2,8.087429E2,1.5990029E3,1.2891014E2,2.3638544E2,1.8846211E2,1.0183263E2,3.011073E1,2.1494334E2,5.9379956E2,1.3127825E3,2.862204E2,1.0296314E2,2.5946997E1,1.8603358E2,5.035184E1,7.727425E1,1.11187874E2,8.908997E1,1.2742655E1,1.841409E1,1.1696638E1,6.9438835E1,1.455045E2,1.9553874E2,3.9826083E2],"tree_param":{"num_deleted":"0","num_feature":"9","num_nodes":"31","size_leaf_vector":"1"}},{"base_weights":[-7.386122E-2,-6.5153587E-1,1.224723E0,-9.3744874E-1,4.4429228E-1,5.1620257E-1,1.482843E0,-9.902339E-1,1.0153323E0,-5.031973E-1,9.9620897E-1,4.8844114E-2,1.5301511E0,1.2424757E0,7.69154E-2,-5.1435817E-2,1.1750417E-2,1.5435517E-2,8.194842E-2,-4.069403E-2,1.2610807E-2,2.5598088E-2,7.297124E-2,-2.5917921E-2,5.1883616E-2,1.5323768E-2,7.7379204E-2,2.611115E-2,7.0431404E-2],"categories":[],"categories_nodes":[],"categories_segments":[],"categories_sizes":[],"default_left":[0,0,0,0,0,0,0,0,0,0,0,0,0,0,0,0,0,0,0,0,0,0,0,0,0,0,0,0,0],"id":14,"left_children":[1,3,5,7,9,11,13,15,17,19,21,23,25,27,-1,-1,-1,-1,-1,-1,-1,-1,-1,-1,-1,-1,-1,-1,-1],"loss_changes":[2.2738328E3,6.5768274E2,1.6991321E2,1.7253162E2,2.2785315E2,1.18746155E2,7.201416E0,7.666089E1,1.9011654E1,3.791962E1,6.095294E1,9.737962E1,1.2125702E0,1.5222824E1,0E0,0E0,0E0,0E0,0E0,0E0,0E0,0E0,0E0,0E0,0E0,0E0,0E0,0E0,0E0],"parents":[2147483647,0,0,1,1,2,2,3,3,4,4,5,5,6,6,7,7,8,8,9,9,10,10,11,11,12,12,13,13],"right_children":[2,4,6,8,10,12,14,16,18,20,22,24,26,28,-1,-1,-1,-1,-1,-1,-1,-1,-1,-1,-1,-1,-1,-1,-1],"split_conditions":[1E0,6E0,5E0,3E0,1E0,2E0,1E0,2E0,1E0,1E0,1E0,1E0,1E0,6E0,7.69154E-2,-5.1435817E-2,1.1750417E-2,1.5435517E-2,8.194842E-2,-4.069403E-2,1.2610807E-2,2.5598088E-2,7.297124E-2,-2.5917921E-2,5.1883616E-2,1.5323768E-2,7.7379204E-2,2.611115E-2,7.0431404E-2],"split_indices":[4,1,1,3,3,3,3,2,2,2,2,2,1,1,0,0,0,0,0,0,0,0,0,0,0,0,0,0,0],"split_type":[0,0,0,0,0,0,0,0,0,0,0,0,0,0,0,0,0,0,0,0,0,0,0,0,0,0,0,0,0],"sum_hessian":[3.02907E3,2.0968054E3,9.322647E2,1.6630444E3,4.3376093E2,2.4974179E2,6.825229E2,1.6197542E3,4.329027E1,1.5969562E2,2.740653E2,1.716647E2,7.807709E1,1.3235191E2,5.5017096E2,1.5705854E3,4.9168633E1,2.0995718E1,2.2294554E1,1.1310207E2,4.6593536E1,1.3502011E2,1.3904521E2,1.0939203E2,6.227267E1,1.3576701E0,7.671942E1,2.5585299E1,1.0676661E2],"tree_param":{"num_deleted":"0","num_feature":"9","num_nodes":"29","size_leaf_vector":"1"}},{"base_weights":[-6.878509E-2,-6.2630665E-1,1.1770296E0,-9.4077647E-1,5.484114E-1,9.664565E-2,1.3546866E0,-1.0358887E0,-5.1909614E-1,4.021999E-2,1.1724104E0,-1.8396538E-1,9.3300545E-1,9.8359954E-1,1.4419665E0,-5.2579176E-2,1.14426175E-2,-4.046377E-2,9.311653E-5,-1.4046773E-2,5.838185E-2,3.7588667E-2,7.288475E-2,-1.6857581E-2,4.6149973E-2,-1.0535671E-2,6.052626E-2,1.0985432E-2,6.611697E-2,6.539952E-2,7.583531E-2],"categories":[],"categories_nodes":[],"categories_segments":[],"categories_sizes":[],"default_left":[0,0,0,0,0,0,0,0,0,0,0,0,0,0,0,0,0,0,0,0,0,0,0,0,0,0,0,0,0,0,0],"id":15,"left_children":[1,3,5,7,9,11,13,15,17,19,21,23,25,27,29,-1,-1,-1,-1,-1,-1,-1,-1,-1,-1,-1,-1,-1,-1,-1,-1],"loss_changes":[2.0487283E3,7.5324976E2,1.7490344E2,6.3943237E1,1.3660187E2,3.0648125E1,2.3944214E1,2.6260742E1,4.5034813E1,8.6695274E1,2.2110657E1,1.6940979E1,1.0662182E1,3.9107056E1,4.3428955E0,0E0,0E0,0E0,0E0,0E0,0E0,0E0,0E0,0E0,0E0,0E0,0E0,0E0,0E0,0E0,0E0],"parents":[2147483647,0,0,1,1,2,2,3,3,4,4,5,5,6,6,7,7,8,8,9,9,10,10,11,11,12,12,13,13,14,14],"right_children":[2,4,6,8,10,12,14,16,18,20,22,24,26,28,30,-1,-1,-1,-1,-1,-1,-1,-1,-1,-1,-1,-1,-1,-1,-1,-1],"split_conditions":[1E0,1.1E1,8E0,5E0,2E0,1E0,1E0,3E0,1E0,9E0,1E0,2E0,6E0,6E0,1E0,-5.2579176E-2,1.14426175E-2,-4.046377E-2,9.311653E-5,-1.4046773E-2,5.838185E-2,3.7588667E-2,7.288475E-2,-1.6857581E-2,4.6149973E-2,-1.0535671E-2,6.052626E-2,1.0985432E-2,6.611697E-2,6.539952E-2,7.583531E-2],"split_indices":[4,5,5,1,3,2,3,3,3,1,2,3,5,1,2,0,0,0,0,0,0,0,0,0,0,0,0,0,0,0,0],"split_type":[0,0,0,0,0,0,0,0,0,0,0,0,0,0,0,0,0,0,0,0,0,0,0,0,0,0,0,0,0,0,0],"sum_hessian":[2.9475798E3,2.0366461E3,9.1093365E2,1.6067273E3,4.299187E2,1.2885748E2,7.8207623E2,1.3098317E3,2.9689572E2,2.375334E2,1.9238531E2,9.706933E1,3.1788149E1,1.5125528E2,6.308209E2,1.2939429E3,1.5888803E1,1.9032776E2,1.0656797E2,1.8545546E2,5.2077934E1,7.921791E1,1.13167404E2,8.5880295E1,1.1189033E1,6.2541533E0,2.5533995E1,4.697368E1,1.042816E2,2.325177E2,3.9830322E2],"tree_param":{"num_deleted":"0","num_feature":"9","num_nodes":"31","size_leaf_vector":"1"}},{"base_weights":[-4.9525794E-2,-7.42553E-1,8.9619446E-1,-9.336262E-1,-3.2278496E-1,4.6541032E-1,1.3125172E0,-1.0527012E0,-7.899918E-1,5.570939E-1,-7.429537E-1,1.139164E0,-3.358198E-1,1.365653E0,9.132041E-2,-5.282821E-2,8.618566E-3,-4.3592203E-2,-1.5480357E-2,9.082107E-3,5.194853E-2,-1.9110547E-2,-4.6079583E-2,4.1907635E-2,6.960737E-2,1.07420115E-2,-3.3259805E-2,7.0963316E-2,5.333996E-2,-2.5004983E-2,6.0188998E-2],"categories":[],"categories_nodes":[],"categories_segments":[],"categories_sizes":[],"default_left":[0,0,0,0,0,0,0,0,0,0,0,0,0,0,0,0,0,0,0,0,0,0,0,0,0,0,0,0,0,0,0],"id":16,"left_children":[1,3,5,7,9,11,13,15,17,19,21,23,25,27,29,-1,-1,-1,-1,-1,-1,-1,-1,-1,-1,-1,-1,-1,-1,-1,-1],"loss_changes":[1.888181E3,1.3304474E2,2.1789697E2,1.8699707E1,1.9323907E2,3.2446094E2,4.0044067E1,3.1226196E0,2.0240051E1,3.0412693E1,2.2423828E1,2.3683899E1,5.0020203E1,7.989624E0,1.828947E1,0E0,0E0,0E0,0E0,0E0,0E0,0E0,0E0,0E0,0E0,0E0,0E0,0E0,0E0,0E0,0E0],"parents":[2147483647,0,0,1,1,2,2,3,3,4,4,5,5,6,6,7,7,8,8,9,9,10,10,11,11,12,12,13,13,14,14],"right_children":[2,4,6,8,10,12,14,16,18,20,22,24,26,28,30,-1,-1,-1,-1,-1,-1,-1,-1,-1,-1,-1,-1,-1,-1,-1,-1],"split_conditions":[1E1,8E0,1.3E1,3E0,3E0,4E0,8E0,9.6331323E2,1E0,1E0,4E0,1E0,5E0,6E0,1.7E1,-5.282821E-2,8.618566E-3,-4.3592203E-2,-1.5480357E-2,9.082107E-3,5.194853E-2,-1.9110547E-2,-4.6079583E-2,4.1907635E-2,6.960737E-2,1.07420115E-2,-3.3259805E-2,7.0963316E-2,5.333996E-2,-2.5004983E-2,6.0188998E-2],"split_indices":[5,5,5,1,0,0,0,8,2,2,0,2,0,0,5,0,0,0,0,0,0,0,0,0,0,0,0,0,0,0,0],"split_type":[0,0,0,0,0,0,0,0,0,0,0,0,0,0,0,0,0,0,0,0,0,0,0,0,0,0,0,0,0,0,0],"sum_hessian":[2.8789011E3,1.6615363E3,1.2173649E3,1.1409608E3,5.205754E2,5.9933215E2,6.180327E2,6.2035114E2,5.2060974E2,1.6814197E2,3.524334E2,3.2533582E2,2.7399634E2,5.9214923E2,2.5883463E1,6.1853827E2,1.8128641E0,4.4412146E2,7.6488266E1,9.528112E1,7.2860855E1,1.177625E2,2.346709E2,1.5053514E2,1.7480067E2,1.0268036E2,1.71316E2,4.9889944E2,9.324981E1,1.7258652E1,8.624811E0],"tree_param":{"num_deleted":"0","num_feature":"9","num_nodes":"31","size_leaf_vector":"1"}},{"base_weights":[-6.449005E-2,-6.037644E-1,1.1295799E0,-8.257238E-1,5.761406E-1,5.2758235E-1,1.3323424E0,-8.9415866E-1,7.537072E-1,4.076978E-2,1.2396051E0,4.305516E-2,1.1205006E0,1.1443672E0,7.272788E-2,-5.1735777E-2,-2.9678574E-2,8.416463E-3,6.908446E-2,-1.6742893E-2,4.70893E-2,5.2366015E-2,7.628297E-2,1.8490482E-2,-9.540155E-3,4.4447966E-2,7.4988E-2,4.034178E-2,6.881573E-2],"categories":[],"categories_nodes":[],"categories_segments":[],"categories_sizes":[],"default_left":[0,0,0,0,0,0,0,0,0,0,0,0,0,0,0,0,0,0,0,0,0,0,0,0,0,0,0,0,0],"id":17,"left_children":[1,3,5,7,9,11,13,15,17,19,21,23,25,27,-1,-1,-1,-1,-1,-1,-1,-1,-1,-1,-1,-1,-1,-1,-1],"loss_changes":[1.8118411E3,5.0808386E2,1.0615271E2,1.770487E2,1.09164055E2,6.3792347E1,1.3364624E1,6.548364E1,2.4878258E1,5.825659E1,5.952881E0,9.494561E0,7.438751E0,1.9436066E1,0E0,0E0,0E0,0E0,0E0,0E0,0E0,0E0,0E0,0E0,0E0,0E0,0E0,0E0,0E0],"parents":[2147483647,0,0,1,1,2,2,3,3,4,4,5,5,6,6,7,7,8,8,9,9,10,10,11,11,12,12,13,13],"right_children":[2,4,6,8,10,12,14,16,18,20,22,24,26,28,-1,-1,-1,-1,-1,-1,-1,-1,-1,-1,-1,-1,-1,-1,-1],"split_conditions":[1E0,2E0,1E0,2E0,1E0,1E0,1E0,1E0,1E0,3E0,2E0,3E0,2E0,2E0,7.272788E-2,-5.1735777E-2,-2.9678574E-2,8.416463E-3,6.908446E-2,-1.6742893E-2,4.70893E-2,5.2366015E-2,7.628297E-2,1.8490482E-2,-9.540155E-3,4.4447966E-2,7.4988E-2,4.034178E-2,6.881573E-2],"split_indices":[4,3,3,2,2,2,2,3,3,3,2,0,2,3,0,0,0,0,0,0,0,0,0,0,0,0,0,0,0],"split_type":[0,0,0,0,0,0,0,0,0,0,0,0,0,0,0,0,0,0,0,0,0,0,0,0,0,0,0,0,0],"sum_hessian":[2.811659E3,1.9372421E3,8.7441675E2,1.6307682E3,3.0647394E2,2.2122037E2,6.5319635E2,1.5634592E3,6.730896E1,1.7019753E2,1.362764E2,1.22327835E2,9.889253E1,2.6144305E2,3.9175333E2,1.0636472E3,4.9981195E2,3.549246E1,3.1816504E1,1.2056369E2,4.963384E1,8.428293E1,5.1993473E1,5.078626E1,7.154158E1,6.348083E1,3.54117E1,1.0830919E2,1.5313387E2],"tree_param":{"num_deleted":"0","num_feature":"9","num_nodes":"29","size_leaf_vector":"1"}},{"base_weights":[-5.173242E-2,-7.0345104E-1,8.2834196E-1,-9.0475196E-1,-2.7695456E-1,4.1247788E-1,1.240339E0,-9.434014E-1,-2.2168726E-1,5.552655E-1,-6.9958305E-1,1.0492359E0,-3.4271803E-1,1.2910603E0,8.5451216E-2,-5.0505448E-2,-3.4721427E-2,-3.1555824E-2,2.1502197E-2,1.1937015E-2,4.4782717E-2,-1.777666E-2,-4.4290077E-2,2.6060706E-2,5.885002E-2,-3.1040944E-3,-4.617101E-2,5.0755978E-2,6.882437E-2,-2.678875E-2,5.6909245E-2],"categories":[],"categories_nodes":[],"categories_segments":[],"categories_sizes":[],"default_left":[0,0,0,0,0,0,0,0,0,0,0,0,0,0,0,0,0,0,0,0,0,0,0,0,0,0,0,0,0,0,0],"id":18,"left_children":[1,3,5,7,9,11,13,15,17,19,21,23,25,27,29,-1,-1,-1,-1,-1,-1,-1,-1,-1,-1,-1,-1,-1,-1,-1,-1],"loss_changes":[1.5947682E3,1.368966E2,2.0217896E2,2.8429443E1,1.8105144E2,2.841923E2,3.4671265E1,1.6345215E1,1.6121584E1,1.8485264E1,2.153888E1,2.1006683E1,4.406778E1,1.2009033E1,1.7647081E1,0E0,0E0,0E0,0E0,0E0,0E0,0E0,0E0,0E0,0E0,0E0,0E0,0E0,0E0,0E0,0E0],"parents":[2147483647,0,0,1,1,2,2,3,3,4,4,5,5,6,6,7,7,8,8,9,9,10,10,11,11,12,12,13,13,14,14],"right_children":[2,4,6,8,10,12,14,16,18,20,22,24,26,28,30,-1,-1,-1,-1,-1,-1,-1,-1,-1,-1,-1,-1,-1,-1,-1,-1],"split_conditions":[1E1,8E0,1.3E1,2E0,3E0,4E0,8E0,4E0,3E0,9E0,4E0,1E0,6E0,1.4E1,1.7E1,-5.0505448E-2,-3.4721427E-2,-3.1555824E-2,2.1502197E-2,1.1937015E-2,4.4782717E-2,-1.777666E-2,-4.4290077E-2,2.6060706E-2,5.885002E-2,-3.1040944E-3,-4.617101E-2,5.0755978E-2,6.882437E-2,-2.678875E-2,5.6909245E-2],"split_indices":[5,5,5,3,0,0,0,1,1,5,0,3,0,5,5,0,0,0,0,0,0,0,0,0,0,0,0,0,0,0,0],"split_type":[0,0,0,0,0,0,0,0,0,0,0,0,0,0,0,0,0,0,0,0,0,0,0,0,0,0,0,0,0,0,0],"sum_hessian":[2.7784531E3,1.5964442E3,1.1820089E3,1.0837885E3,5.126559E2,5.892397E2,5.927692E2,1.0253883E3,5.8400043E1,1.7255495E2,3.4010092E2,3.1947705E2,2.697626E2,5.677178E2,2.505144E1,8.062989E2,2.1908945E2,3.5886887E1,2.2513153E1,9.029325E1,8.2261696E1,1.20457565E2,2.1964334E2,6.3232197E1,2.5624487E2,1.8261642E2,8.7146194E1,1.3725365E2,4.3046414E2,1.606338E1,8.98806E0],"tree_param":{"num_deleted":"0","num_feature":"9","num_nodes":"31","size_leaf_vector":"1"}},{"base_weights":[-6.620992E-2,-7.197866E-1,8.017217E-1,-9.1657525E-1,-3.1313646E-1,5.812836E-2,1.0151702E0,-1.0044227E0,-7.0097655E-1,4.545737E-1,-7.033913E-1,-4.425967E-1,5.7592684E-1,6.4723957E-1,1.2719783E0,-4.4459905E-2,-5.2309442E-2,-4.0288042E-2,-6.7835012E-3,3.8710255E-3,4.6368398E-2,-2.0469023E-2,-4.3172903E-2,3.5019886E-2,-2.9750759E-2,1.1038105E-2,5.3385764E-2,1.9723633E-2,6.714545E-2,5.784991E-2,7.192563E-2],"categories":[],"categories_nodes":[],"categories_segments":[],"categories_sizes":[],"default_left":[0,0,0,0,0,0,0,0,0,0,0,0,0,0,0,0,0,0,0,0,0,0,0,0,0,0,0,0,0,0,0],"id":19,"left_children":[1,3,5,7,9,11,13,15,17,19,21,23,25,27,29,-1,-1,-1,-1,-1,-1,-1,-1,-1,-1,-1,-1,-1,-1,-1,-1],"loss_changes":[1.5345227E3,1.2319641E2,1.8438116E2,1.8980774E1,1.515396E2,6.772684E1,8.448218E1,2.6124878E0,1.7909958E1,3.0368874E1,1.5413132E1,2.3563324E1,2.2186176E1,6.508655E1,8.496948E0,0E0,0E0,0E0,0E0,0E0,0E0,0E0,0E0,0E0,0E0,0E0,0E0,0E0,0E0,0E0,0E0],"parents":[2147483647,0,0,1,1,2,2,3,3,4,4,5,5,6,6,7,7,8,8,9,9,10,10,11,11,12,12,13,13,14,14],"right_children":[2,4,6,8,10,12,14,16,18,20,22,24,26,28,30,-1,-1,-1,-1,-1,-1,-1,-1,-1,-1,-1,-1,-1,-1,-1,-1],"split_conditions":[1E1,8E0,1E0,1E0,3E0,1E0,1E0,2E0,1E0,1E0,4E0,3E0,1.3E1,3E0,2E0,-4.4459905E-2,-5.2309442E-2,-4.0288042E-2,-6.7835012E-3,3.8710255E-3,4.6368398E-2,-2.0469023E-2,-4.3172903E-2,3.5019886E-2,-2.9750759E-2,1.1038105E-2,5.3385764E-2,1.9723633E-2,6.714545E-2,5.784991E-2,7.192563E-2],"split_indices":[5,5,3,3,0,2,2,0,2,2,0,0,5,3,2,0,0,0,0,0,0,0,0,0,0,0,0,0,0,0,0],"split_type":[0,0,0,0,0,0,0,0,0,0,0,0,0,0,0,0,0,0,0,0,0,0,0,0,0,0,0,0,0,0,0],"sum_hessian":[2.703132E3,1.5420764E3,1.1610557E3,1.0383416E3,5.0373477E2,2.592334E2,9.018223E2,7.351428E2,3.031988E2,1.6971207E2,3.340227E2,1.318633E2,1.2737012E2,3.7215442E2,5.296679E2,2.0150899E2,5.336338E2,2.5542776E2,4.7771027E1,9.505188E1,7.466018E1,1.190003E2,2.1502242E2,1.5092039E1,1.1677125E2,7.479953E1,5.257058E1,2.7412128E2,9.803313E1,3.18035E2,2.1163289E2],"tree_param":{"num_deleted":"0","num_feature":"9","num_nodes":"31","size_leaf_vector":"1"}},{"base_weights":[-5.747441E-2,-5.8082855E-1,1.056481E0,-8.812414E-1,4.45162E-1,3.422676E-1,1.2505304E0,-9.952823E-1,-4.859557E-1,-4.2236635E-1,7.26687E-1,7.0251745E-1,-2.7707076E-1,1.0721806E0,1.3404882E0,-5.2987177E-2,-4.2333856E-2,3.5731697E-3,-4.8910853E-2,-3.6197614E-2,8.179392E-3,2.2941973E-2,6.371478E-2,-1.2244764E-2,5.5871338E-2,-2.1153612E-2,6.1243474E-2,6.618168E-2,1.7194344E-2,6.795805E-2,5.116008E-2],"categories":[],"categories_nodes":[],"categories_segments":[],"categories_sizes":[],"default_left":[0,0,0,0,0,0,0,0,0,0,0,0,0,0,0,0,0,0,0,0,0,0,0,0,0,0,0,0,0,0,0],"id":20,"left_children":[1,3,5,7,9,11,13,15,17,19,21,23,25,27,29,-1,-1,-1,-1,-1,-1,-1,-1,-1,-1,-1,-1,-1,-1,-1,-1],"loss_changes":[1.5386277E3,5.538083E2,1.1649078E2,6.2139526E1,9.978845E1,4.0715813E1,9.199951E0,9.421387E0,8.595627E1,1.7865908E1,4.4576126E1,4.5521236E1,1.5321516E1,4.116809E1,1.1967163E0,0E0,0E0,0E0,0E0,0E0,0E0,0E0,0E0,0E0,0E0,0E0,0E0,0E0,0E0,0E0,0E0],"parents":[2147483647,0,0,1,1,2,2,3,3,4,4,5,5,6,6,7,7,8,8,9,9,10,10,11,11,12,12,13,13,14,14],"right_children":[2,4,6,8,10,12,14,16,18,20,22,24,26,28,30,-1,-1,-1,-1,-1,-1,-1,-1,-1,-1,-1,-1,-1,-1,-1,-1],"split_conditions":[1E0,1.1E1,9E0,9E0,1E0,3E0,1.2E1,1E0,4E0,1.3E1,1.5E1,6E0,2E0,4E0,7E0,-5.2987177E-2,-4.2333856E-2,3.5731697E-3,-4.8910853E-2,-3.6197614E-2,8.179392E-3,2.2941973E-2,6.371478E-2,-1.2244764E-2,5.5871338E-2,-2.1153612E-2,6.1243474E-2,6.618168E-2,1.7194344E-2,6.795805E-2,5.116008E-2],"split_indices":[4,5,5,5,3,0,5,3,0,5,5,5,3,0,0,0,0,0,0,0,0,0,0,0,0,0,0,0,0,0,0],"split_type":[0,0,0,0,0,0,0,0,0,0,0,0,0,0,0,0,0,0,0,0,0,0,0,0,0,0,0,0,0,0,0],"sum_hessian":[2.6371338E3,1.7945187E3,8.426151E2,1.3881931E3,4.0632565E2,1.8061433E2,6.620008E2,1.0761913E3,3.120017E2,9.9429665E1,3.06896E2,1.14107346E2,6.6506996E1,2.2628601E2,4.3571478E2,7.4632355E2,3.298678E2,1.4671817E2,1.6528355E2,6.548801E1,3.3941654E1,2.0732607E2,9.956992E1,3.4877373E1,7.922997E1,6.1269398E1,5.2375956E0,1.6760185E2,5.8684155E1,4.083962E2,2.7318556E1],"tree_param":{"num_deleted":"0","num_feature":"9","num_nodes":"31","size_leaf_vector":"1"}},{"base_weights":[-5.147907E-2,-5.648485E-1,1.0488153E0,-9.2233485E-1,2.2040926E-1,-5.697947E-2,1.1603681E0,-1.0022398E0,-5.5960613E-1,-1.6451612E-1,8.4993285E-1,-5.913007E-1,1.6555762E-1,9.359376E-1,1.3160241E0,-5.128158E-2,-3.450642E-2,-4.320827E-2,2.6242848E-4,-1.7241007E-2,5.3845145E-2,2.2722729E-2,5.9008785E-2,7.2422447E-3,-4.2598207E-2,2.7567318E-2,-3.0310204E-2,3.1027406E-2,6.5310374E-2,3.7276864E-2,6.603206E-2],"categories":[],"categories_nodes":[],"categories_segments":[],"categories_sizes":[],"default_left":[0,0,0,0,0,0,0,0,0,0,0,0,0,0,0,0,0,0,0,0,0,0,0,0,0,0,0,0,0,0,0],"id":21,"left_children":[1,3,5,7,9,11,13,15,17,19,21,23,25,27,29,-1,-1,-1,-1,-1,-1,-1,-1,-1,-1,-1,-1,-1,-1,-1,-1],"loss_changes":[1.4579811E3,4.9424603E2,1.01362305E2,3.4496704E1,1.3374646E2,9.158891E0,2.4828308E1,6.5195312E0,3.795732E1,7.71441E1,2.68087E1,4.4647245E0,1.6584225E1,3.5269653E1,1.6912842E-1,0E0,0E0,0E0,0E0,0E0,0E0,0E0,0E0,0E0,0E0,0E0,0E0,0E0,0E0,0E0,0E0],"parents":[2147483647,0,0,1,1,2,2,3,3,4,4,5,5,6,6,7,7,8,8,9,9,10,10,11,11,12,12,13,13,14,14],"right_children":[2,4,6,8,10,12,14,16,18,20,22,24,26,28,30,-1,-1,-1,-1,-1,-1,-1,-1,-1,-1,-1,-1,-1,-1,-1,-1],"split_conditions":[1E0,1E1,7E0,1E0,2E0,5E0,1E0,2E0,1E0,2E0,1E0,-4.566538E1,3E0,2E0,-4.2722885E2,-5.128158E-2,-3.450642E-2,-4.320827E-2,2.6242848E-4,-1.7241007E-2,5.3845145E-2,2.2722729E-2,5.9008785E-2,7.2422447E-3,-4.2598207E-2,2.7567318E-2,-3.0310204E-2,3.1027406E-2,6.5310374E-2,3.7276864E-2,6.603206E-2],"split_indices":[4,5,5,2,3,5,2,3,3,2,2,8,0,3,8,0,0,0,0,0,0,0,0,0,0,0,0,0,0,0,0],"split_type":[0,0,0,0,0,0,0,0,0,0,0,0,0,0,0,0,0,0,0,0,0,0,0,0,0,0,0,0,0,0,0],"sum_hessian":[2.5790999E3,1.7589193E3,8.201805E2,1.208554E3,5.5036536E2,7.520283E1,7.4497766E2,9.8893896E2,2.1961502E2,3.4199155E2,2.083738E2,2.1624462E1,5.3578365E1,3.0796106E2,4.3701657E2,9.178621E2,7.107682E1,1.4233871E2,7.7276306E1,2.9925055E2,4.2740986E1,9.590275E1,1.1247105E2,5.77094E0,1.5853523E1,3.591217E1,1.7666199E1,1.6775021E2,1.4021085E2,4.8129406E0,4.3220364E2],"tree_param":{"num_deleted":"0","num_feature":"9","num_nodes":"31","size_leaf_vector":"1"}},{"base_weights":[-4.887692E-2,-5.641034E-1,8.907374E-1,-8.669243E-1,-1.4303853E-1,1.0440328E0,1.8802646E-1,-9.4396883E-1,-5.7499945E-1,6.6542196E-1,-5.6759256E-1,7.4000263E-1,1.2471591E0,-5.854909E-1,8.835129E-1,-4.8904143E-2,-2.130013E-2,-3.4623284E-2,9.585434E-3,1.7336471E-2,5.1214185E-2,-7.782628E-3,-3.981124E-2,5.2431673E-2,1.0765873E-2,5.675562E-2,6.679805E-2,-4.1409507E-2,-1.788768E-3,5.0914582E-2,-1.7583465E-2],"categories":[],"categories_nodes":[],"categories_segments":[],"categories_sizes":[],"default_left":[0,0,0,0,0,0,0,0,0,0,0,0,0,0,0,0,0,0,0,0,0,0,0,0,0,0,0,0,0,0,0],"id":22,"left_children":[1,3,5,7,9,11,13,15,17,19,21,23,25,27,29,-1,-1,-1,-1,-1,-1,-1,-1,-1,-1,-1,-1,-1,-1,-1,-1],"loss_changes":[1.2193638E3,2.0729034E2,9.589496E1,2.0734009E1,2.3435582E2,4.428656E1,8.711211E1,1.2781189E1,1.8153618E1,2.6541496E1,4.202336E1,4.765233E1,2.8356323E0,1.0217909E1,1.4534637E1,0E0,0E0,0E0,0E0,0E0,0E0,0E0,0E0,0E0,0E0,0E0,0E0,0E0,0E0,0E0,0E0],"parents":[2147483647,0,0,1,1,2,2,3,3,4,4,5,5,6,6,7,7,8,8,9,9,10,10,11,11,12,12,13,13,14,14],"right_children":[2,4,6,8,10,12,14,16,18,20,22,24,26,28,30,-1,-1,-1,-1,-1,-1,-1,-1,-1,-1,-1,-1,-1,-1,-1,-1],"split_conditions":[1.1E1,8E0,6E0,4E0,3E0,1.3E1,1.4E1,2E0,1E0,1E0,4E0,4E0,1.5E1,1.3E1,9E0,-4.8904143E-2,-2.130013E-2,-3.4623284E-2,9.585434E-3,1.7336471E-2,5.1214185E-2,-7.782628E-3,-3.981124E-2,5.2431673E-2,1.0765873E-2,5.675562E-2,6.679805E-2,-4.1409507E-2,-1.788768E-3,5.0914582E-2,-1.7583465E-2],"split_indices":[5,5,0,1,0,5,5,3,2,2,0,0,5,5,0,0,0,0,0,0,0,0,0,0,0,0,0,0,0,0,0],"split_type":[0,0,0,0,0,0,0,0,0,0,0,0,0,0,0,0,0,0,0,0,0,0,0,0,0,0,0,0,0,0,0],"sum_hessian":[2.5167144E3,1.6256874E3,8.910269E2,9.4500275E2,6.8068463E2,7.310613E2,1.5996564E2,7.459093E2,1.9909344E2,2.3417935E2,4.4650528E2,2.9466443E2,4.3639688E2,7.580915E1,8.415649E1,6.9898486E2,4.6924416E1,1.7272704E2,2.636641E1,1.2507278E2,1.09106575E2,1.59966E2,2.8653928E2,1.8490237E2,1.09762054E2,1.9903929E2,2.3735759E2,5.2239044E1,2.3570103E1,7.603537E1,8.121115E0],"tree_param":{"num_deleted":"0","num_feature":"9","num_nodes":"31","size_leaf_vector":"1"}},{"base_weights":[-5.5269536E-2,-5.5349934E-1,1.0145385E0,-8.4253263E-1,3.5679084E-1,-4.8935365E-2,1.1262769E0,-1.0175086E0,-5.536716E-1,-1.3439818E-1,8.049892E-1,-4.849853E-1,3.6357197E-1,8.6280435E-1,1.257519E0,-5.2480668E-2,-4.4097427E-2,-6.188148E-3,-5.024303E-2,-1.9026129E-2,3.8768142E-2,5.307426E-2,1.5750734E-2,-3.158705E-2,8.62485E-3,-8.873766E-3,2.7864018E-2,5.0524395E-2,-1.7889893E-2,6.398007E-2,4.339523E-2],"categories":[],"categories_nodes":[],"categories_segments":[],"categories_sizes":[],"default_left":[0,0,0,0,0,0,0,0,0,0,0,0,0,0,0,0,0,0,0,0,0,0,0,0,0,0,0,0,0,0,0],"id":23,"left_children":[1,3,5,7,9,11,13,15,17,19,21,23,25,27,29,-1,-1,-1,-1,-1,-1,-1,-1,-1,-1,-1,-1,-1,-1,-1,-1],"loss_changes":[1.3126692E3,4.4235754E2,9.304431E1,6.390741E1,8.940456E1,1.3731811E1,2.3402649E1,2.5263672E0,9.363585E1,4.3820282E1,2.6338242E1,3.6852102E0,4.2174935E0,4.33817E1,2.937622E0,0E0,0E0,0E0,0E0,0E0,0E0,0E0,0E0,0E0,0E0,0E0,0E0,0E0,0E0,0E0,0E0],"parents":[2147483647,0,0,1,1,2,2,3,3,4,4,5,5,6,6,7,7,8,8,9,9,10,10,11,11,12,12,13,13,14,14],"right_children":[2,4,6,8,10,12,14,16,18,20,22,24,26,28,30,-1,-1,-1,-1,-1,-1,-1,-1,-1,-1,-1,-1,-1,-1,-1,-1],"split_conditions":[1E0,1.1E1,7E0,8E0,1E0,3E0,1.1E1,4E0,4E0,9E0,5E0,1E0,-4.3664247E-2,5E0,7E0,-5.2480668E-2,-4.4097427E-2,-6.188148E-3,-5.024303E-2,-1.9026129E-2,3.8768142E-2,5.307426E-2,1.5750734E-2,-3.158705E-2,8.62485E-3,-8.873766E-3,2.7864018E-2,5.0524395E-2,-1.7889893E-2,6.398007E-2,4.339523E-2],"split_indices":[4,5,5,5,2,1,5,1,0,1,0,2,7,0,0,0,0,0,0,0,0,0,0,0,0,0,0,0,0,0,0],"split_type":[0,0,0,0,0,0,0,0,0,0,0,0,0,0,0,0,0,0,0,0,0,0,0,0,0,0,0,0,0,0,0],"sum_hessian":[2.460693E3,1.6791594E3,7.815337E2,1.2745437E3,4.0461575E2,7.4361084E1,7.071726E2,7.92169E2,4.823747E2,1.9338339E2,2.1123235E2,3.606358E1,3.82975E1,2.3765245E2,4.6952014E2,6.350317E2,1.5713728E2,2.4766507E2,2.3470964E2,1.5266385E2,4.0719547E1,1.3788484E2,7.33475E1,2.951478E1,6.5488E0,1.0118711E1,2.8178791E1,2.1215541E2,2.5497036E1,4.4217438E2,2.7345753E1],"tree_param":{"num_deleted":"0","num_feature":"9","num_nodes":"31","size_leaf_vector":"1"}},{"base_weights":[-5.289656E-2,-5.415078E-1,9.729721E-1,-8.4264445E-1,3.83733E-1,3.4632778E-1,1.1521324E0,-1.0145931E0,-5.6973124E-1,-7.1209304E-2,7.8895354E-1,-8.627125E-2,8.688497E-1,9.849085E-1,1.2727222E0,-5.1540233E-2,4.8377267E-3,-3.8160976E-2,5.3537036E-3,-1.5988281E-2,5.9086647E-2,5.6204586E-3,4.9096383E-2,1.4514039E-2,-2.8879637E-2,-2.7432388E-2,4.8893757E-2,3.0184215E-2,5.985687E-2,6.375744E-2,1.9561974E-2],"categories":[],"categories_nodes":[],"categories_segments":[],"categories_sizes":[],"default_left":[0,0,0,0,0,0,0,0,0,0,0,0,0,0,0,0,0,0,0,0,0,0,0,0,0,0,0,0,0,0,0],"id":24,"left_children":[1,3,5,7,9,11,13,15,17,19,21,23,25,27,29,-1,-1,-1,-1,-1,-1,-1,-1,-1,-1,-1,-1,-1,-1,-1,-1],"loss_changes":[1.2079478E3,4.5512396E2,8.68913E1,5.7227295E1,7.4073586E1,3.94737E1,1.0930542E1,1.369165E1,6.2730255E1,5.9568596E1,2.7624481E1,1.7977207E1,1.2750744E1,2.0116974E1,2.4468994E-1,0E0,0E0,0E0,0E0,0E0,0E0,0E0,0E0,0E0,0E0,0E0,0E0,0E0,0E0,0E0,0E0],"parents":[2147483647,0,0,1,1,2,2,3,3,4,4,5,5,6,6,7,7,8,8,9,9,10,10,11,11,12,12,13,13,14,14],"right_children":[2,4,6,8,10,12,14,16,18,20,22,24,26,28,30,-1,-1,-1,-1,-1,-1,-1,-1,-1,-1,-1,-1,-1,-1,-1,-1],"split_conditions":[1E0,1.1E1,9E0,4E0,1E0,1E0,7E0,3E0,1E0,3E0,1E0,3E0,5E0,1E0,9E0,-5.1540233E-2,4.8377267E-3,-3.8160976E-2,5.3537036E-3,-1.5988281E-2,5.9086647E-2,5.6204586E-3,4.9096383E-2,1.4514039E-2,-2.8879637E-2,-2.7432388E-2,4.8893757E-2,3.0184215E-2,5.985687E-2,6.375744E-2,1.9561974E-2],"split_indices":[4,5,5,1,2,3,1,3,2,3,3,0,5,2,0,0,0,0,0,0,0,0,0,0,0,0,0,0,0,0,0],"split_type":[0,0,0,0,0,0,0,0,0,0,0,0,0,0,0,0,0,0,0,0,0,0,0,0,0,0,0,0,0,0,0],"sum_hessian":[2.4078152E3,1.6313103E3,7.76505E2,1.2308098E3,4.0050046E2,1.7329797E2,6.0320703E2,7.534082E2,4.7740158E2,1.8906306E2,2.114374E2,9.526357E1,7.803439E1,2.5657632E2,3.466307E2,7.4264746E2,1.0760772E1,3.7116385E2,1.0623774E2,1.5838728E2,3.0675785E1,4.7275963E1,1.6416144E2,5.4162365E1,4.110121E1,5.2852864E0,7.274911E1,9.313087E1,1.6344547E2,3.4523373E2,1.3969543E0],"tree_param":{"num_deleted":"0","num_feature":"9","num_nodes":"31","size_leaf_vector":"1"}},{"base_weights":[-4.3441515E-2,-6.135844E-1,6.602669E-1,-8.3345777E-1,-2.4823794E-1,-5.0875604E-2,8.7796736E-1,-9.085847E-1,-1.0468997E-1,-4.6230948E-1,4.3692717E-1,-5.828506E-1,5.001167E-1,2.2035468E-1,9.9914944E-1,-4.6936963E-2,-1.1865238E-3,-3.5486486E-2,9.926598E-3,-3.6347203E-2,-2.02475E-3,1.5796534E-3,4.814051E-2,-4.056137E-2,2.984238E-2,3.1261642E-3,4.631673E-2,5.3405076E-2,-1.7829163E-2,3.7173223E-2,5.9234113E-2],"categories":[],"categories_nodes":[],"categories_segments":[],"categories_sizes":[],"default_left":[0,0,0,0,0,0,0,0,0,0,0,0,0,0,0,0,0,0,0,0,0,0,0,0,0,0,0,0,0,0,0],"id":25,"left_children":[1,3,5,7,9,11,13,15,17,19,21,23,25,27,29,-1,-1,-1,-1,-1,-1,-1,-1,-1,-1,-1,-1,-1,-1,-1,-1],"loss_changes":[9.410123E2,1.0387067E2,1.6256671E2,4.4165955E1,7.180911E1,7.26876E1,6.3834167E1,1.9528992E1,1.4208746E1,4.1548065E1,2.485278E1,3.4464283E1,2.267102E1,6.218006E1,3.1302673E1,0E0,0E0,0E0,0E0,0E0,0E0,0E0,0E0,0E0,0E0,0E0,0E0,0E0,0E0,0E0,0E0],"parents":[2147483647,0,0,1,1,2,2,3,3,4,4,5,5,6,6,7,7,8,8,9,9,10,10,11,11,12,12,13,13,14,14],"right_children":[2,4,6,8,10,12,14,16,18,20,22,24,26,28,30,-1,-1,-1,-1,-1,-1,-1,-1,-1,-1,-1,-1,-1,-1,-1,-1],"split_conditions":[1E1,4E0,1E0,2E0,1E0,7E0,5E0,2E0,7E0,1E0,1E0,2E0,1E0,5E0,1E0,-4.6936963E-2,-1.1865238E-3,-3.5486486E-2,9.926598E-3,-3.6347203E-2,-2.02475E-3,1.5796534E-3,4.814051E-2,-4.056137E-2,2.984238E-2,3.1261642E-3,4.631673E-2,5.3405076E-2,-1.7829163E-2,3.7173223E-2,5.9234113E-2],"split_indices":[5,1,3,3,2,1,1,2,5,3,3,2,2,0,2,0,0,0,0,0,0,0,0,0,0,0,0,0,0,0,0],"split_type":[0,0,0,0,0,0,0,0,0,0,0,0,0,0,0,0,0,0,0,0,0,0,0,0,0,0,0,0,0,0,0],"sum_hessian":[2.343401E3,1.2946261E3,1.0487749E3,8.074212E2,4.8720483E2,2.459895E2,8.0278534E2,7.31741E2,7.568015E1,3.714691E2,1.15735756E2,1.25125175E2,1.2086433E2,1.25353584E2,6.7743176E2,7.0756726E2,2.4173779E1,2.481815E1,5.0862003E1,2.2781866E2,1.4365042E2,6.595771E1,4.977805E1,1.05092705E2,2.0032467E1,6.020213E1,6.0662197E1,5.041822E1,7.493536E1,2.8696674E2,3.9046503E2],"tree_param":{"num_deleted":"0","num_feature":"9","num_nodes":"31","size_leaf_vector":"1"}},{"base_weights":[-5.6564283E-2,-6.155793E-1,6.301876E-1,-8.354586E-1,-2.5938064E-1,2.9854003E-1,1.0268523E0,-9.1404283E-1,-7.130545E-2,-5.36265E-1,1.8004803E-1,-4.3875363E-2,9.19472E-1,8.010741E-1,1.2150809E0,-4.958579E-2,-3.664302E-2,-3.7716765E-2,8.969919E-3,-3.38421E-2,-3.8798512E-3,3.171683E-2,-5.628399E-3,1.7244263E-2,-2.134876E-2,3.063649E-2,5.6017485E-2,2.418375E-2,5.6715455E-2,4.9793173E-2,6.264777E-2],"categories":[],"categories_nodes":[],"categories_segments":[],"categories_sizes":[],"default_left":[0,0,0,0,0,0,0,0,0,0,0,0,0,0,0,0,0,0,0,0,0,0,0,0,0,0,0,0,0,0,0],"id":26,"left_children":[1,3,5,7,9,11,13,15,17,19,21,23,25,27,29,-1,-1,-1,-1,-1,-1,-1,-1,-1,-1,-1,-1,-1,-1,-1,-1],"loss_changes":[8.820793E2,9.8982056E1,1.3533362E2,4.693579E1,5.9092297E1,1.1973654E2,1.8962494E1,9.259766E0,1.28189E1,1.9142952E1,2.5085835E1,5.4332287E1,1.164621E1,2.231987E1,8.60199E-1,0E0,0E0,0E0,0E0,0E0,0E0,0E0,0E0,0E0,0E0,0E0,0E0,0E0,0E0,0E0,0E0],"parents":[2147483647,0,0,1,1,2,2,3,3,4,4,5,5,6,6,7,7,8,8,9,9,10,10,11,11,12,12,13,13,14,14],"right_children":[2,4,6,8,10,12,14,16,18,20,22,24,26,28,30,-1,-1,-1,-1,-1,-1,-1,-1,-1,-1,-1,-1,-1,-1,-1,-1],"split_conditions":[1E1,4E0,2E0,2E0,1E0,8E0,7E0,1E0,2E0,6E0,2E0,5E0,9E0,3E0,1.3E1,-4.958579E-2,-3.664302E-2,-3.7716765E-2,8.969919E-3,-3.38421E-2,-3.8798512E-3,3.171683E-2,-5.628399E-3,1.7244263E-2,-2.134876E-2,3.063649E-2,5.6017485E-2,2.418375E-2,5.6715455E-2,4.9793173E-2,6.264777E-2],"split_indices":[5,1,3,3,3,1,1,3,1,1,0,0,1,3,5,0,0,0,0,0,0,0,0,0,0,0,0,0,0,0,0],"split_type":[0,0,0,0,0,0,0,0,0,0,0,0,0,0,0,0,0,0,0,0,0,0,0,0,0,0,0,0,0,0,0],"sum_hessian":[2.2956418E3,1.2655718E3,1.03007E3,7.816924E2,4.838795E2,5.619672E2,4.6810275E2,7.086226E2,7.306976E1,2.9670502E2,1.8717445E2,3.6281876E2,1.991485E2,2.152129E2,2.5288983E2,4.9285992E2,2.1576268E2,1.907957E1,5.3990192E1,2.2673683E2,6.996819E1,7.2872116E1,1.1430233E2,1.8012843E2,1.826903E2,8.041076E1,1.1873775E2,1.1148106E2,1.0373185E2,4.1276318E1,2.1161353E2],"tree_param":{"num_deleted":"0","num_feature":"9","num_nodes":"31","size_leaf_vector":"1"}},{"base_weights":[-4.8519246E-2,-5.216823E-1,9.348588E-1,-8.032987E-1,3.0202448E-1,4.038744E-1,1.0956994E0,-9.8223394E-1,-5.2971154E-1,-1.4019659E-1,7.140341E-1,1.6155744E-1,9.42604E-1,8.673293E-1,1.1809367E0,-5.1272552E-2,-4.0580254E-2,-3.6384523E-2,-2.504395E-3,-1.8950103E-2,4.9982797E-2,2.2336878E-2,5.8210935E-2,-2.0275874E-2,2.0125963E-2,3.208362E-3,5.2412648E-2,2.233377E-2,5.6032557E-2,5.2330323E-2,6.0875352E-2],"categories":[],"categories_nodes":[],"categories_segments":[],"categories_sizes":[],"default_left":[0,0,0,0,0,0,0,0,0,0,0,0,0,0,0,0,0,0,0,0,0,0,0,0,0,0,0,0,0,0,0],"id":27,"left_children":[1,3,5,7,9,11,13,15,17,19,21,23,25,27,29,-1,-1,-1,-1,-1,-1,-1,-1,-1,-1,-1,-1,-1,-1,-1,-1],"loss_changes":[1.0527649E3,3.545741E2,6.2330933E1,5.5218567E1,7.114041E1,2.2362062E1,9.945679E0,4.2351685E0,4.2920227E1,5.179617E1,2.378846E1,1.6583143E1,4.8793144E0,1.622277E1,7.281494E-1,0E0,0E0,0E0,0E0,0E0,0E0,0E0,0E0,0E0,0E0,0E0,0E0,0E0,0E0,0E0,0E0],"parents":[2147483647,0,0,1,1,2,2,3,3,4,4,5,5,6,6,7,7,8,8,9,9,10,10,11,11,12,12,13,13,14,14],"right_children":[2,4,6,8,10,12,14,16,18,20,22,24,26,28,30,-1,-1,-1,-1,-1,-1,-1,-1,-1,-1,-1,-1,-1,-1,-1,-1],"split_conditions":[1E0,1.1E1,9E0,8E0,1E0,1E0,6E0,4E0,1E0,1E0,2E0,3E0,2E0,1E0,7E0,-5.1272552E-2,-4.0580254E-2,-3.6384523E-2,-2.504395E-3,-1.8950103E-2,4.9982797E-2,2.2336878E-2,5.8210935E-2,-2.0275874E-2,2.0125963E-2,3.208362E-3,5.2412648E-2,2.233377E-2,5.6032557E-2,5.2330323E-2,6.0875352E-2],"split_indices":[4,5,5,5,2,2,1,1,2,6,2,1,1,2,1,0,0,0,0,0,0,0,0,0,0,0,0,0,0,0,0],"split_type":[0,0,0,0,0,0,0,0,0,0,0,0,0,0,0,0,0,0,0,0,0,0,0,0,0,0,0,0,0,0,0],"sum_hessian":[2.2605115E3,1.5264926E3,7.3401904E2,1.1375883E3,3.8890433E2,1.7146646E2,5.6255255E2,6.8620013E2,4.5138806E2,1.8789319E2,2.0101114E2,1.1916619E2,5.2300274E1,1.5593697E2,4.066156E2,5.4352527E2,1.426749E2,3.1913742E2,1.3225067E2,1.5589899E2,3.199421E1,1.2737484E2,7.36363E1,3.533249E1,8.383371E1,5.7873874E0,4.6512886E1,5.9649372E1,9.628759E1,9.334811E1,3.132675E2],"tree_param":{"num_deleted":"0","num_feature":"9","num_nodes":"31","size_leaf_vector":"1"}},{"base_weights":[-4.023649E-2,-4.9563566E-1,9.086004E-1,-8.7387204E-1,9.717873E-2,4.522782E-1,1.1064254E0,-9.126733E-1,3.6260387E-1,-5.232012E-1,5.0474215E-1,-2.202089E-1,8.6622125E-1,8.46024E-1,1.1660001E0,-5.0312884E-2,-2.9085124E-2,-4.844326E-2,3.0389855E-2,-3.1446163E-2,4.3302376E-2,6.04177E-3,4.896833E-2,-1.9962126E-2,7.27514E-2,2.6445234E-2,6.100287E-2,2.4221763E-2,5.591547E-2,5.1551532E-2,6.0004693E-2],"categories":[],"categories_nodes":[],"categories_segments":[],"categories_sizes":[],"default_left":[0,0,0,0,0,0,0,0,0,0,0,0,0,0,0,0,0,0,0,0,0,0,0,0,0,0,0,0,0,0,0],"id":28,"left_children":[1,3,5,7,9,11,13,15,17,19,21,23,25,27,29,-1,-1,-1,-1,-1,-1,-1,-1,-1,-1,-1,-1,-1,-1,-1,-1],"loss_changes":[9.482912E2,3.3257193E2,6.374945E1,4.3766846E1,1.4652998E2,6.05785E1,6.705078E0,2.6612366E1,9.815384E0,3.4303726E1,6.358866E1,2.5609896E1,1.5405678E1,8.905548E0,6.0723877E-1,0E0,0E0,0E0,0E0,0E0,0E0,0E0,0E0,0E0,0E0,0E0,0E0,0E0,0E0,0E0,0E0],"parents":[2147483647,0,0,1,1,2,2,3,3,4,4,5,5,6,6,7,7,8,8,9,9,10,10,11,11,12,12,13,13,14,14],"right_children":[2,4,6,8,10,12,14,16,18,20,22,24,26,28,30,-1,-1,-1,-1,-1,-1,-1,-1,-1,-1,-1,-1,-1,-1,-1,-1],"split_conditions":[1E0,5E0,5E0,3E0,1E0,1E0,6E0,1E0,2E0,2E0,1E0,2E0,2E0,1E0,1E0,-5.0312884E-2,-2.9085124E-2,-4.844326E-2,3.0389855E-2,-3.1446163E-2,4.3302376E-2,6.04177E-3,4.896833E-2,-1.9962126E-2,7.27514E-2,2.6445234E-2,6.100287E-2,2.4221763E-2,5.591547E-2,5.1551532E-2,6.0004693E-2],"split_indices":[4,1,1,3,3,3,1,2,1,2,2,2,3,2,3,0,0,0,0,0,0,0,0,0,0,0,0,0,0,0,0],"split_type":[0,0,0,0,0,0,0,0,0,0,0,0,0,0,0,0,0,0,0,0,0,0,0,0,0,0,0,0,0,0,0],"sum_hessian":[2.1925708E3,1.4818344E3,7.1073645E2,9.043519E2,5.7748236E2,2.1593236E2,4.9480405E2,8.770903E2,2.7261679E1,2.2885019E2,3.4863217E2,8.2451164E1,1.334812E2,9.495519E1,3.9984888E2,6.821634E2,1.9492688E2,3.7805853E0,2.3481094E1,2.1317485E2,1.5675336E1,1.9342899E2,1.5520319E2,7.5178474E1,7.272691E0,6.9613E1,6.3868202E1,4.1982517E1,5.2972675E1,8.693476E1,3.129141E2],"tree_param":{"num_deleted":"0","num_feature":"9","num_nodes":"31","size_leaf_vector":"1"}},{"base_weights":[-4.441214E-2,-4.9800533E-1,8.87336E-1,-8.7441665E-1,8.901743E-2,4.2601585E-1,1.0849112E0,-9.1702694E-1,4.215038E-1,-2.1127562E-1,8.4779274E-1,1.0765884E-1,1.1653137E0,8.1974036E-1,1.146416E0,-4.7514077E-2,-4.6170508E-3,3.430603E-3,5.8175158E-2,-2.4860373E-2,1.6308555E-2,2.7780468E-2,5.54575E-2,-3.924083E-3,6.865582E-2,6.969627E-3,5.9121113E-2,2.180657E-2,5.503952E-2,2.2963574E-2,5.7588484E-2],"categories":[],"categories_nodes":[],"categories_segments":[],"categories_sizes":[],"default_left":[0,0,0,0,0,0,0,0,0,0,0,0,0,0,0,0,0,0,0,0,0,0,0,0,0,0,0,0,0,0,0],"id":29,"left_children":[1,3,5,7,9,11,13,15,17,19,21,23,25,27,29,-1,-1,-1,-1,-1,-1,-1,-1,-1,-1,-1,-1,-1,-1,-1,-1],"loss_changes":[9.079221E2,3.193228E2,6.364972E1,4.900238E1,1.2900505E2,4.990459E1,7.081726E0,2.329712E1,7.438213E0,6.2534134E1,1.1641075E1,3.536672E1,9.564285E-1,9.881783E0,9.3048096E-1,0E0,0E0,0E0,0E0,0E0,0E0,0E0,0E0,0E0,0E0,0E0,0E0,0E0,0E0,0E0,0E0],"parents":[2147483647,0,0,1,1,2,2,3,3,4,4,5,5,6,6,7,7,8,8,9,9,10,10,11,11,12,12,13,13,14,14],"right_children":[2,4,6,8,10,12,14,16,18,20,22,24,26,28,30,-1,-1,-1,-1,-1,-1,-1,-1,-1,-1,-1,-1,-1,-1,-1,-1],"split_conditions":[1E0,5E0,5E0,3E0,2E0,2E0,6E0,2E0,4E0,1E0,1E0,2E0,-3.596796E2,1E0,-4.1441977E2,-4.7514077E-2,-4.6170508E-3,3.430603E-3,5.8175158E-2,-2.4860373E-2,1.6308555E-2,2.7780468E-2,5.54575E-2,-3.924083E-3,6.865582E-2,6.969627E-3,5.9121113E-2,2.180657E-2,5.503952E-2,2.2963574E-2,5.7588484E-2],"split_indices":[4,1,1,3,3,3,1,2,3,2,2,2,8,2,8,0,0,0,0,0,0,0,0,0,0,0,0,0,0,0,0],"split_type":[0,0,0,0,0,0,0,0,0,0,0,0,0,0,0,0,0,0,0,0,0,0,0,0,0,0,0,0,0,0,0],"sum_hessian":[2.1461982E3,1.4437958E3,7.024024E2,8.7941E2,5.6438574E2,2.1156758E2,4.9083484E2,8.5169824E2,2.7711754E1,4.048742E2,1.5951152E2,1.4868594E2,6.288163E1,9.510935E1,3.9572546E2,8.1853925E2,3.315897E1,1.9520403E1,8.191351E0,2.643238E2,1.405504E2,7.679013E1,8.27214E1,1.3043744E2,1.824851E1,1.1814784E0,6.1700153E1,4.129586E1,5.3813488E1,3.730269E0,3.919952E2],"tree_param":{"num_deleted":"0","num_feature":"9","num_nodes":"31","size_leaf_vector":"1"}},{"base_weights":[-5.909038E-2,-5.9619653E-1,4.9269083E-1,-7.645337E-1,2.6864433E-1,-9.5797084E-2,7.792895E-1,-8.3093643E-1,4.2439985E-1,-1.15139276E-1,8.5042715E-1,-4.2031556E-1,4.1544998E-1,4.7296935E-1,1.0635003E0,-4.680827E-2,-3.077327E-2,2.7862806E-3,4.86913E-2,-1.3116843E-2,5.02653E-2,-1.6882813E-2,4.7844358E-2,-3.383979E-2,1.5995245E-3,1.2006263E-2,5.4564785E-2,1.9997708E-3,4.380373E-2,4.8542812E-2,6.1004084E-2],"categories":[],"categories_nodes":[],"categories_segments":[],"categories_sizes":[],"default_left":[0,0,0,0,0,0,0,0,0,0,0,0,0,0,0,0,0,0,0,0,0,0,0,0,0,0,0,0,0,0,0],"id":30,"left_children":[1,3,5,7,9,11,13,15,17,19,21,23,25,27,29,-1,-1,-1,-1,-1,-1,-1,-1,-1,-1,-1,-1,-1,-1,-1,-1],"loss_changes":[6.195829E2,1.5442944E2,1.7400926E2,7.0380005E1,3.8801052E1,5.6358425E1,5.9884247E1,1.847931E1,9.583721E0,1.763437E1,9.052555E0,2.4110409E1,1.5378235E1,5.8544235E1,4.023224E0,0E0,0E0,0E0,0E0,0E0,0E0,0E0,0E0,0E0,0E0,0E0,0E0,0E0,0E0,0E0,0E0],"parents":[2147483647,0,0,1,1,2,2,3,3,4,4,5,5,6,6,7,7,8,8,9,9,10,10,11,11,12,12,13,13,14,14],"right_children":[2,4,6,8,10,12,14,16,18,20,22,24,26,28,30,-1,-1,-1,-1,-1,-1,-1,-1,-1,-1,-1,-1,-1,-1,-1,-1],"split_conditions":[5E0,2E0,1E0,2E0,1E0,1E0,1E0,1E0,4E0,4E0,2E0,7E0,9E0,7E0,2E0,-4.680827E-2,-3.077327E-2,2.7862806E-3,4.86913E-2,-1.3116843E-2,5.02653E-2,-1.6882813E-2,4.7844358E-2,-3.383979E-2,1.5995245E-3,1.2006263E-2,5.4564785E-2,1.9997708E-3,4.380373E-2,4.8542812E-2,6.1004084E-2],"split_indices":[1,3,3,2,2,2,2,3,1,3,1,1,1,1,2,0,0,0,0,0,0,0,0,0,0,0,0,0,0,0,0],"split_type":[0,0,0,0,0,0,0,0,0,0,0,0,0,0,0,0,0,0,0,0,0,0,0,0,0,0,0,0,0,0,0],"sum_hessian":[2.0886157E3,1.0583414E3,1.0302744E3,8.860014E2,1.7234E2,3.376421E2,6.926323E2,8.394203E2,4.658107E1,1.0432332E2,6.801668E1,2.0664822E2,1.3099388E2,3.346324E2,3.5799997E2,5.617402E2,2.7768018E2,2.8535017E1,1.8046053E1,9.288632E1,1.1437E1,5.4149275E0,6.260175E1,1.3155412E2,7.50941E1,1.0508779E2,2.5906084E1,1.6186884E2,1.7276355E2,2.2944519E2,1.2855478E2],"tree_param":{"num_deleted":"0","num_feature":"9","num_nodes":"31","size_leaf_vector":"1"}},{"base_weights":[-3.886587E-2,-6.584946E-1,4.4217283E-1,-9.290082E-1,-4.476979E-1,1.3821861E-1,9.353559E-1,-9.708686E-1,-4.5995653E-1,-6.786347E-1,-2.5423072E-2,5.966015E-1,-4.3759802E-1,1.0307046E0,1.7497757E-1,-5.0528686E-2,-3.9163213E-2,-4.392392E-2,6.795122E-4,-3.911629E-2,-1.26386825E-2,-1.0070632E-2,3.1050606E-2,4.160497E-2,1.2052211E-2,-4.790621E-3,-3.3439685E-2,4.329173E-2,5.8754783E-2,-2.3133308E-2,4.902471E-2],"categories":[],"categories_nodes":[],"categories_segments":[],"categories_sizes":[],"default_left":[0,0,0,0,0,0,0,0,0,0,0,0,0,0,0,0,0,0,0,0,0,0,0,0,0,0,0,0,0,0,0],"id":31,"left_children":[1,3,5,7,9,11,13,15,17,19,21,23,25,27,29,-1,-1,-1,-1,-1,-1,-1,-1,-1,-1,-1,-1,-1,-1,-1,-1],"loss_changes":[6.124969E2,5.079431E1,1.7329196E2,7.257843E0,4.939264E1,1.8948888E2,3.1789032E1,1.8850708E0,6.7602096E0,1.4264114E1,2.0621986E1,3.3258118E1,2.5090523E1,8.305237E0,2.6308413E1,0E0,0E0,0E0,0E0,0E0,0E0,0E0,0E0,0E0,0E0,0E0,0E0,0E0,0E0,0E0,0E0],"parents":[2147483647,0,0,1,1,2,2,3,3,4,4,5,5,6,6,7,7,8,8,9,9,10,10,11,11,12,12,13,13,14,14],"right_children":[2,4,6,8,10,12,14,16,18,20,22,24,26,28,30,-1,-1,-1,-1,-1,-1,-1,-1,-1,-1,-1,-1,-1,-1,-1,-1],"split_conditions":[9E0,3E0,1.3E1,2E0,1E0,4E0,7E0,1E0,7E0,1E0,1E0,3E0,5E0,1.5E1,1.6E1,-5.0528686E-2,-3.9163213E-2,-4.392392E-2,6.795122E-4,-3.911629E-2,-1.26386825E-2,-1.0070632E-2,3.1050606E-2,4.160497E-2,1.2052211E-2,-4.790621E-3,-3.3439685E-2,4.329173E-2,5.8754783E-2,-2.3133308E-2,4.902471E-2],"split_indices":[5,1,5,3,3,0,0,2,5,2,2,0,0,5,5,0,0,0,0,0,0,0,0,0,0,0,0,0,0,0,0],"split_type":[0,0,0,0,0,0,0,0,0,0,0,0,0,0,0,0,0,0,0,0,0,0,0,0,0,0,0,0,0,0,0],"sum_hessian":[2.052931E3,8.9705725E2,1.1558735E3,3.913868E2,5.0567047E2,7.1592267E2,4.3995087E2,3.5833722E2,3.304957E1,3.26503E2,1.791675E2,3.985879E2,3.173348E2,3.9061377E2,4.9337097E1,2.9212433E2,6.621289E1,1.709015E1,1.595942E1,2.6189764E2,6.460536E1,1.4136879E2,3.77987E1,2.3896973E2,1.5961815E2,1.2861403E2,1.8872078E2,1.8564027E2,2.049735E2,2.7775639E1,2.1561459E1],"tree_param":{"num_deleted":"0","num_feature":"9","num_nodes":"31","size_leaf_vector":"1"}},{"base_weights":[-3.3818193E-2,-4.6586487E-1,8.62133E-1,-8.277098E-1,6.039065E-2,4.5014846E-1,1.0448725E0,-8.716136E-1,4.5420364E-1,-2.8267533E-1,5.7903093E-1,1.4136915E-1,8.810552E-1,8.8741195E-1,1.1477317E0,-4.8873194E-2,-2.596098E-2,-3.1506356E-2,3.3098232E-2,-1.9766236E-2,4.2247947E-2,1.8224016E-2,5.370288E-2,-5.096755E-4,6.3815124E-2,-4.3302444E-3,4.8532084E-2,3.192558E-2,5.418327E-2,5.754451E-2,1.3893197E-2],"categories":[],"categories_nodes":[],"categories_segments":[],"categories_sizes":[],"default_left":[0,0,0,0,0,0,0,0,0,0,0,0,0,0,0,0,0,0,0,0,0,0,0,0,0,0,0,0,0,0,0],"id":32,"left_children":[1,3,5,7,9,11,13,15,17,19,21,23,25,27,29,-1,-1,-1,-1,-1,-1,-1,-1,-1,-1,-1,-1,-1,-1,-1,-1],"loss_changes":[7.7627783E2,2.5767737E2,4.8649567E1,4.5519653E1,9.8408745E1,2.678349E1,6.2894287E0,2.8421387E1,6.546436E0,4.2634796E1,2.2991058E1,2.0483011E1,7.385895E0,8.232269E0,4.2074585E-1,0E0,0E0,0E0,0E0,0E0,0E0,0E0,0E0,0E0,0E0,0E0,0E0,0E0,0E0,0E0,0E0],"parents":[2147483647,0,0,1,1,2,2,3,3,4,4,5,5,6,6,7,7,8,8,9,9,10,10,11,11,12,12,13,13,14,14],"right_children":[2,4,6,8,10,12,14,16,18,20,22,24,26,28,30,-1,-1,-1,-1,-1,-1,-1,-1,-1,-1,-1,-1,-1,-1,-1,-1],"split_conditions":[1E0,5E0,5E0,1E0,1E0,1E0,7E0,1E0,2E0,1E0,2E0,1E0,2E0,1E0,9E0,-4.8873194E-2,-2.596098E-2,-3.1506356E-2,3.3098232E-2,-1.9766236E-2,4.2247947E-2,1.8224016E-2,5.370288E-2,-5.096755E-4,6.3815124E-2,-4.3302444E-3,4.8532084E-2,3.192558E-2,5.418327E-2,5.754451E-2,1.3893197E-2],"split_indices":[4,1,1,6,2,2,1,2,1,6,2,6,1,2,0,0,0,0,0,0,0,0,0,0,0,0,0,0,0,0,0],"split_type":[0,0,0,0,0,0,0,0,0,0,0,0,0,0,0,0,0,0,0,0,0,0,0,0,0,0,0,0,0,0,0],"sum_hessian":[2.0033678E3,1.3519222E3,6.5144556E2,8.0075977E2,5.511625E2,2.0123235E2,4.502132E2,7.745524E2,2.6207342E1,3.3200528E2,2.1915721E2,1.1800229E2,8.323006E1,1.8169508E2,2.6851813E2,5.9427386E2,1.8027855E2,3.8871052E0,2.2320236E1,3.0244116E2,2.9564104E1,1.5410326E2,6.505395E1,1.04974655E2,1.3027636E1,7.0553727E0,7.617469E1,8.197852E1,9.971657E1,2.6722473E2,1.2933792E0],"tree_param":{"num_deleted":"0","num_feature":"9","num_nodes":"31","size_leaf_vector":"1"}},{"base_weights":[-2.9015753E-2,-5.2183145E-1,5.380927E-1,-6.751125E-1,-1.2262397E-2,-3.9059356E-2,7.2390926E-1,-7.612096E-1,6.776983E-2,-4.190131E-1,5.224355E-1,-2.3289402E-1,8.311989E-1,4.369498E-1,9.54691E-1,-4.4162013E-2,-3.0728484E-2,-7.485566E-3,3.089456E-2,-3.6216985E-2,-1.1256723E-2,4.2314343E-2,1.5769362E-2,-2.1484455E-2,1.6684882E-2,-1.9102717E-2,4.389746E-2,1.1952387E-2,5.0935086E-2,5.2304763E-2,3.357098E-2],"categories":[],"categories_nodes":[],"categories_segments":[],"categories_sizes":[],"default_left":[0,0,0,0,0,0,0,0,0,0,0,0,0,0,0,0,0,0,0,0,0,0,0,0,0,0,0,0,0,0,0],"id":33,"left_children":[1,3,5,7,9,11,13,15,17,19,21,23,25,27,29,-1,-1,-1,-1,-1,-1,-1,-1,-1,-1,-1,-1,-1,-1,-1,-1],"loss_changes":[5.470512E2,8.179065E1,9.763364E1,5.1543915E1,5.3110756E1,3.7743717E1,4.517993E1,1.2368835E1,1.0206025E1,8.046106E0,6.808258E0,2.0529972E1,2.6477966E0,3.5302696E1,9.156586E0,0E0,0E0,0E0,0E0,0E0,0E0,0E0,0E0,0E0,0E0,0E0,0E0,0E0,0E0,0E0,0E0],"parents":[2147483647,0,0,1,1,2,2,3,3,4,4,5,5,6,6,7,7,8,8,9,9,10,10,11,11,12,12,13,13,14,14],"right_children":[2,4,6,8,10,12,14,16,18,20,22,24,26,28,30,-1,-1,-1,-1,-1,-1,-1,-1,-1,-1,-1,-1,-1,-1,-1,-1],"split_conditions":[1E1,1E0,1E0,2E0,1E0,2E0,1E0,7E0,2.8656357E2,7E0,2E0,1.3E1,-3.1853113E-1,3E0,5E0,-4.4162013E-2,-3.0728484E-2,-7.485566E-3,3.089456E-2,-3.6216985E-2,-1.1256723E-2,4.2314343E-2,1.5769362E-2,-2.1484455E-2,1.6684882E-2,-1.9102717E-2,4.389746E-2,1.1952387E-2,5.0935086E-2,5.2304763E-2,3.357098E-2],"split_indices":[5,2,3,3,3,2,2,5,8,5,0,5,7,3,0,0,0,0,0,0,0,0,0,0,0,0,0,0,0,0,0],"split_type":[0,0,0,0,0,0,0,0,0,0,0,0,0,0,0,0,0,0,0,0,0,0,0,0,0,0,0,0,0,0,0],"sum_hessian":[1.955385E3,1.0462642E3,9.091209E2,8.040706E2,2.4219348E2,2.2160349E2,6.8751746E2,7.2053845E2,8.3532196E1,1.3767722E2,1.04516266E2,1.8183527E2,3.976821E1,3.0774875E2,3.797687E2,3.9052698E2,3.3001147E2,6.0387054E1,2.3145142E1,5.240773E1,8.526949E1,3.955676E1,6.49595E1,1.351389E2,4.669637E1,1.2094206E0,3.8558792E1,2.3068468E2,7.706407E1,2.85086E2,9.468269E1],"tree_param":{"num_deleted":"0","num_feature":"9","num_nodes":"31","size_leaf_vector":"1"}},{"base_weights":[-3.7428666E-2,-4.6155658E-1,8.425065E-1,-7.864125E-1,8.317338E-2,4.3190753E-1,1.0114739E0,-9.347261E-1,-5.0215614E-1,8.130834E-1,-1.3576747E-1,5.9434675E-2,8.857885E-1,8.310987E-1,5.729538E-2,-4.911701E-2,-3.774781E-2,-7.699745E-4,-3.7816044E-2,2.8140089E-2,5.5961985E-2,-1.8405754E-2,4.342973E-2,-2.3960315E-2,1.1696244E-2,-2.7320376E-2,4.6497155E-2,-3.0087992E-3,4.5837753E-2],"categories":[],"categories_nodes":[],"categories_segments":[],"categories_sizes":[],"default_left":[0,0,0,0,0,0,0,0,0,0,0,0,0,0,0,0,0,0,0,0,0,0,0,0,0,0,0,0,0],"id":34,"left_children":[1,3,5,7,9,11,13,15,17,19,21,23,25,27,-1,-1,-1,-1,-1,-1,-1,-1,-1,-1,-1,-1,-1,-1,-1],"loss_changes":[7.1661096E2,2.2933203E2,4.289081E1,3.375067E1,7.7601875E1,3.1023254E1,9.758209E0,3.8139954E0,3.468598E1,7.954567E0,8.756749E1,9.70213E0,5.743126E0,1.4732971E1,0E0,0E0,0E0,0E0,0E0,0E0,0E0,0E0,0E0,0E0,0E0,0E0,0E0,0E0,0E0],"parents":[2147483647,0,0,1,1,2,2,3,3,4,4,5,5,6,6,7,7,8,8,9,9,10,10,11,11,12,12,13,13],"right_children":[2,4,6,8,10,12,14,16,18,20,22,24,26,28,-1,-1,-1,-1,-1,-1,-1,-1,-1,-1,-1,-1,-1,-1,-1],"split_conditions":[1E0,1E1,1E0,8E0,3E0,6E0,2E0,4E0,3E0,1.2E1,1.5E1,3E0,-3.0455133E2,3E0,5.729538E-2,-4.911701E-2,-3.774781E-2,-7.699745E-4,-3.7816044E-2,2.8140089E-2,5.5961985E-2,-1.8405754E-2,4.342973E-2,-2.3960315E-2,1.1696244E-2,-2.7320376E-2,4.6497155E-2,-3.0087992E-3,4.5837753E-2],"split_indices":[4,5,3,5,0,1,3,1,0,5,5,1,8,1,0,0,0,0,0,0,0,0,0,0,0,0,0,0,0],"split_type":[0,0,0,0,0,0,0,0,0,0,0,0,0,0,0,0,0,0,0,0,0,0,0,0,0,0,0,0,0],"sum_hessian":[1.9181113E3,1.2945938E3,6.235175E2,8.1068744E2,4.839063E2,1.8281764E2,4.4069986E2,5.312264E2,2.794611E2,1.11031906E2,3.7287442E2,1.01035126E2,8.178252E1,1.9126027E2,2.4943959E2,4.1645837E2,1.14768005E2,9.622979E1,1.832313E2,6.265222E1,4.837968E1,3.0333487E2,6.953954E1,2.429416E1,7.674097E1,2.105746E0,7.967677E1,1.67956E1,1.7446466E2],"tree_param":{"num_deleted":"0","num_feature":"9","num_nodes":"29","size_leaf_vector":"1"}},{"base_weights":[-4.2984024E-2,-4.5732057E-1,8.084795E-1,-6.6647995E-1,3.9094678E-1,3.7068123E-1,9.5939386E-1,-9.161693E-1,-4.128394E-1,1.2160197E-1,9.473146E-1,6.361001E-1,-1.03651606E-1,7.5136745E-1,1.0859789E0,-3.8518503E-2,-4.8815817E-2,5.9524197E-3,-3.206918E-2,5.0456174E-2,-6.3956156E-3,5.8209147E-2,1.5437518E-3,-1.4625534E-2,4.0677287E-2,-1.97412E-2,1.7086035E-2,5.045506E-2,1.0368171E-2,5.5641808E-2,3.579655E-2],"categories":[],"categories_nodes":[],"categories_segments":[],"categories_sizes":[],"default_left":[0,0,0,0,0,0,0,0,0,0,0,0,0,0,0,0,0,0,0,0,0,0,0,0,0,0,0,0,0,0,0],"id":35,"left_children":[1,3,5,7,9,11,13,15,17,19,21,23,25,27,29,-1,-1,-1,-1,-1,-1,-1,-1,-1,-1,-1,-1,-1,-1,-1,-1],"loss_changes":[6.649129E2,2.2518347E2,4.0405975E1,6.4050995E1,3.755619E1,2.01819E1,1.1248871E1,3.7363586E0,6.164576E1,3.7893246E1,1.623227E1,1.7142982E1,7.6808147E0,2.4547424E1,2.0118103E0,0E0,0E0,0E0,0E0,0E0,0E0,0E0,0E0,0E0,0E0,0E0,0E0,0E0,0E0,0E0,0E0],"parents":[2147483647,0,0,1,1,2,2,3,3,4,4,5,5,6,6,7,7,8,8,9,9,10,10,11,11,12,12,13,13,14,14],"right_children":[2,4,6,8,10,12,14,16,18,20,22,24,26,28,30,-1,-1,-1,-1,-1,-1,-1,-1,-1,-1,-1,-1,-1,-1,-1,-1],"split_conditions":[1E0,1.2E1,9E0,8E0,1.5E1,3E0,1.2E1,2E0,3E0,3E0,7E0,5E0,8E0,4E0,7E0,-3.8518503E-2,-4.8815817E-2,5.9524197E-3,-3.206918E-2,5.0456174E-2,-6.3956156E-3,5.8209147E-2,1.5437518E-3,-1.4625534E-2,4.0677287E-2,-1.97412E-2,1.7086035E-2,5.045506E-2,1.0368171E-2,5.5641808E-2,3.579655E-2],"split_indices":[4,5,5,5,5,0,5,0,0,0,0,5,5,0,0,0,0,0,0,0,0,0,0,0,0,0,0,0,0,0,0],"split_type":[0,0,0,0,0,0,0,0,0,0,0,0,0,0,0,0,0,0,0,0,0,0,0,0,0,0,0,0,0,0,0],"sum_hessian":[1.8826659E3,1.266721E3,6.1594495E2,1.016335E3,2.5038593E2,1.5878128E2,4.5716367E2,5.108404E2,5.054946E2,1.6953192E2,8.085401E1,1.0159274E2,5.7188534E1,1.7557085E2,2.815928E2,1.5322472E2,3.576157E2,1.5206795E2,3.5342664E2,3.6534496E1,1.3299742E2,6.516329E1,1.5690716E1,1.6194582E1,8.539816E1,3.4649273E1,2.253926E1,1.1855018E2,5.7020668E1,2.6066696E2,2.092586E1],"tree_param":{"num_deleted":"0","num_feature":"9","num_nodes":"31","size_leaf_vector":"1"}},{"base_weights":[-3.7045784E-2,-4.4045407E-1,7.9639477E-1,-6.2467575E-1,3.059704E-1,3.8090593E-1,9.704448E-1,-7.997945E-1,-1.8500835E-1,-8.053931E-2,8.132505E-1,4.6636276E-2,7.89079E-1,7.786006E-1,1.116177E0,-4.6135627E-2,-2.8523872E-2,-1.3224559E-2,6.605512E-2,-9.917109E-3,4.7734078E-2,3.2591715E-2,5.5582564E-2,1.43073E-2,-1.6489899E-2,2.9575769E-2,5.765624E-2,2.4360942E-2,5.227361E-2,9.7408015E-3,5.653977E-2],"categories":[],"categories_nodes":[],"categories_segments":[],"categories_sizes":[],"default_left":[0,0,0,0,0,0,0,0,0,0,0,0,0,0,0,0,0,0,0,0,0,0,0,0,0,0,0,0,0,0,0],"id":36,"left_children":[1,3,5,7,9,11,13,15,17,19,21,23,25,27,29,-1,-1,-1,-1,-1,-1,-1,-1,-1,-1,-1,-1,-1,-1,-1,-1],"loss_changes":[6.159546E2,1.6993459E2,4.2842163E1,7.610712E1,4.8107628E1,2.4257565E1,1.0886749E1,1.9429901E1,3.4276684E1,1.7259905E1,4.383438E0,9.016068E0,5.079212E0,1.3863258E1,2.967163E0,0E0,0E0,0E0,0E0,0E0,0E0,0E0,0E0,0E0,0E0,0E0,0E0,0E0,0E0,0E0,0E0],"parents":[2147483647,0,0,1,1,2,2,3,3,4,4,5,5,6,6,7,7,8,8,9,9,10,10,11,11,12,12,13,13,14,14],"right_children":[2,4,6,8,10,12,14,16,18,20,22,24,26,28,30,-1,-1,-1,-1,-1,-1,-1,-1,-1,-1,-1,-1,-1,-1,-1,-1],"split_conditions":[1E0,2E0,1E0,1E0,1E0,1E0,2E0,1E0,3E0,4E0,2E0,4E0,2.6290694E-1,1E0,-3.4943455E-1,-4.6135627E-2,-2.8523872E-2,-1.3224559E-2,6.605512E-2,-9.917109E-3,4.7734078E-2,3.2591715E-2,5.5582564E-2,1.43073E-2,-1.6489899E-2,2.9575769E-2,5.765624E-2,2.4360942E-2,5.227361E-2,9.7408015E-3,5.653977E-2],"split_indices":[4,3,3,2,2,2,3,3,2,3,2,0,7,2,7,0,0,0,0,0,0,0,0,0,0,0,0,0,0,0,0],"split_type":[0,0,0,0,0,0,0,0,0,0,0,0,0,0,0,0,0,0,0,0,0,0,0,0,0,0,0,0,0,0,0],"sum_hessian":[1.8299727E3,1.2334299E3,5.9654266E2,9.8940295E2,2.4402702E2,1.770591E2,4.1948358E2,7.069907E2,2.824122E2,1.3897763E2,1.0504939E2,9.7954445E1,7.910465E1,1.8382976E2,2.3565384E2,4.5830652E2,2.486842E2,2.6903848E2,1.3373732E1,1.2550429E2,1.3473346E1,7.0238945E1,3.481045E1,6.0011463E1,3.794298E1,5.2978592E1,2.6126062E1,8.923015E1,9.459961E1,3.904272E0,2.3174957E2],"tree_param":{"num_deleted":"0","num_feature":"9","num_nodes":"31","size_leaf_vector":"1"}},{"base_weights":[-2.4455125E-2,-4.170937E-1,7.7891725E-1,-8.3627707E-1,1.0938826E-2,4.715561E-1,1.0496074E0,-9.555799E-1,-6.067297E-1,-4.961868E-1,2.5824705E-1,2.2483979E-1,1.0430651E0,9.018106E-1,5.491063E-2,-5.004266E-2,-3.450323E-2,-3.757252E-2,-2.838279E-3,-2.7762905E-2,5.4413106E-2,3.542456E-3,4.4301108E-2,-6.420889E-3,3.6423966E-2,3.4880855E-3,5.291332E-2,2.6528118E-2,5.1243998E-2],"categories":[],"categories_nodes":[],"categories_segments":[],"categories_sizes":[],"default_left":[0,0,0,0,0,0,0,0,0,0,0,0,0,0,0,0,0,0,0,0,0,0,0,0,0,0,0,0,0],"id":37,"left_children":[1,3,5,7,9,11,13,15,17,19,21,23,25,27,-1,-1,-1,-1,-1,-1,-1,-1,-1,-1,-1,-1,-1,-1,-1],"loss_changes":[5.7006793E2,2.1781267E2,4.8868317E1,1.6215942E1,7.55785E1,3.919653E1,1.27005E0,4.139557E0,1.6869072E1,1.909407E1,4.7588676E1,3.5072292E1,1.1697006E0,3.2696E0,0E0,0E0,0E0,0E0,0E0,0E0,0E0,0E0,0E0,0E0,0E0,0E0,0E0,0E0,0E0],"parents":[2147483647,0,0,1,1,2,2,3,3,4,4,5,5,6,6,7,7,8,8,9,9,10,10,11,11,12,12,13,13],"right_children":[2,4,6,8,10,12,14,16,18,20,22,24,26,28,-1,-1,-1,-1,-1,-1,-1,-1,-1,-1,-1,-1,-1,-1,-1],"split_conditions":[1E0,9E0,6E0,1E0,1E0,2E0,7E0,5E0,1E0,3E0,8E0,1E0,1E0,1E0,5.491063E-2,-5.004266E-2,-3.450323E-2,-3.757252E-2,-2.838279E-3,-2.7762905E-2,5.4413106E-2,3.542456E-3,4.4301108E-2,-6.420889E-3,3.6423966E-2,3.4880855E-3,5.291332E-2,2.6528118E-2,5.1243998E-2],"split_indices":[4,5,1,3,3,3,1,1,2,2,1,2,1,3,0,0,0,0,0,0,0,0,0,0,0,0,0,0,0],"split_type":[0,0,0,0,0,0,0,0,0,0,0,0,0,0,0,0,0,0,0,0,0,0,0,0,0,0,0,0,0],"sum_hessian":[1.805214E3,1.2129031E3,5.92311E2,6.12304E2,6.0059906E2,2.7865176E2,3.136592E2,4.008218E2,2.1148221E2,1.9655032E2,4.0404874E2,1.9560423E2,8.304752E1,8.246286E1,2.3119635E2,3.4006717E2,6.0754642E1,1.6713496E2,4.4347233E1,1.9011214E2,6.4381876E0,3.1202008E2,9.2028656E1,1.1540387E2,8.0200356E1,1.3630668E0,8.1684456E1,2.1852917E1,6.0609943E1],"tree_param":{"num_deleted":"0","num_feature":"9","num_nodes":"29","size_leaf_vector":"1"}},{"base_weights":[-3.9956946E-2,-4.2620036E-1,7.488001E-1,-7.754418E-1,3.134126E-2,4.536258E-1,1.0153105E0,-8.236546E-1,3.8727722E-1,-4.7882268E-1,3.54196E-1,1.9849288E-1,1.0431358E0,8.429867E-1,1.0680798E0,-4.8932727E-2,-3.0198632E-2,-3.0825201E-2,2.8710926E-2,-2.8030649E-2,1.4578729E-2,9.825534E-3,5.374355E-2,-1.6622312E-2,1.716118E-2,1.972814E-2,5.4518588E-2,3.0436212E-2,5.497424E-2,5.510131E-4,5.380063E-2],"categories":[],"categories_nodes":[],"categories_segments":[],"categories_sizes":[],"default_left":[0,0,0,0,0,0,0,0,0,0,0,0,0,0,0,0,0,0,0,0,0,0,0,0,0,0,0,0,0,0,0],"id":38,"left_children":[1,3,5,7,9,11,13,15,17,19,21,23,25,27,29,-1,-1,-1,-1,-1,-1,-1,-1,-1,-1,-1,-1,-1,-1,-1,-1],"loss_changes":[5.3681305E2,1.8902185E2,4.510617E1,3.7923096E1,8.46586E1,4.1401417E1,1.8602905E0,2.1351868E1,5.493344E0,1.2717411E1,3.5554165E1,1.5046053E1,2.122635E0,3.8923874E0,1.9056396E0,0E0,0E0,0E0,0E0,0E0,0E0,0E0,0E0,0E0,0E0,0E0,0E0,0E0,0E0,0E0,0E0],"parents":[2147483647,0,0,1,1,2,2,3,3,4,4,5,5,6,6,7,7,8,8,9,9,10,10,11,11,12,12,13,13,14,14],"right_children":[2,4,6,8,10,12,14,16,18,20,22,24,26,28,30,-1,-1,-1,-1,-1,-1,-1,-1,-1,-1,-1,-1,-1,-1,-1,-1],"split_conditions":[1E0,5E0,6E0,3E0,1E0,2E0,1E0,1E0,2E0,9E0,9E0,3E0,-2.3121944E-1,8E0,-4.2603424E-1,-4.8932727E-2,-3.0198632E-2,-3.0825201E-2,2.8710926E-2,-2.8030649E-2,1.4578729E-2,9.825534E-3,5.374355E-2,-1.6622312E-2,1.716118E-2,1.972814E-2,5.4518588E-2,3.0436212E-2,5.497424E-2,5.510131E-4,5.380063E-2],"split_indices":[4,1,1,3,3,3,3,3,1,1,1,1,7,1,7,0,0,0,0,0,0,0,0,0,0,0,0,0,0,0,0],"split_type":[0,0,0,0,0,0,0,0,0,0,0,0,0,0,0,0,0,0,0,0,0,0,0,0,0,0,0,0,0,0,0],"sum_hessian":[1.7600044E3,1.1817683E3,5.7823596E2,6.6980865E2,5.1195972E2,2.7564584E2,3.0259015E2,6.434205E2,2.6388155E1,1.9823404E2,3.1372568E2,1.9331717E2,8.232867E1,7.4916756E1,2.276734E2,3.7522208E2,2.6819843E2,3.7821345E0,2.260602E1,1.7945432E2,1.8779718E1,2.584491E2,5.527658E1,4.113135E1,1.5218582E2,6.223934E0,7.610473E1,4.0918587E1,3.399817E1,1.7136562E0,2.2595975E2],"tree_param":{"num_deleted":"0","num_feature":"9","num_nodes":"31","size_leaf_vector":"1"}},{"base_weights":[-2.9382067E-2,-4.060263E-1,7.456289E-1,-7.5822574E-1,3.9368514E-2,4.741851E-1,9.963957E-1,-9.0488386E-1,-3.3542183E-1,-1.953411E-1,6.458153E-1,2.5035948E-1,1.0124267E0,8.8457537E-1,5.4601092E-2,-4.6595227E-2,-4.933446E-3,-4.1379143E-2,5.6207697E-3,-2.2992095E-2,1.3015776E-2,1.849003E-2,4.7446873E-2,-3.54966E-3,3.4653854E-2,1.1126906E-2,5.24078E-2,2.8940743E-2,4.9886968E-2],"categories":[],"categories_nodes":[],"categories_segments":[],"categories_sizes":[],"default_left":[0,0,0,0,0,0,0,0,0,0,0,0,0,0,0,0,0,0,0,0,0,0,0,0,0,0,0,0,0],"id":39,"left_children":[1,3,5,7,9,11,13,15,17,19,21,23,25,27,-1,-1,-1,-1,-1,-1,-1,-1,-1,-1,-1,-1,-1,-1,-1],"loss_changes":[5.0021075E2,1.8091965E2,3.7676483E1,3.962857E1,7.274017E1,3.2398754E1,2.1394043E0,1.0311096E1,3.699814E1,4.4540173E1,1.1578213E1,2.7472647E1,2.0041046E0,4.236656E0,0E0,0E0,0E0,0E0,0E0,0E0,0E0,0E0,0E0,0E0,0E0,0E0,0E0,0E0,0E0],"parents":[2147483647,0,0,1,1,2,2,3,3,4,4,5,5,6,6,7,7,8,8,9,9,10,10,11,11,12,12,13,13],"right_children":[2,4,6,8,10,12,14,16,18,20,22,24,26,28,-1,-1,-1,-1,-1,-1,-1,-1,-1,-1,-1,-1,-1,-1,-1],"split_conditions":[1E0,5E0,6E0,1E0,2E0,2E0,8E0,3E0,1E0,1E0,1E0,1E0,2E0,1E0,5.4601092E-2,-4.6595227E-2,-4.933446E-3,-4.1379143E-2,5.6207697E-3,-2.2992095E-2,1.3015776E-2,1.849003E-2,4.7446873E-2,-3.54966E-3,3.4653854E-2,1.1126906E-2,5.24078E-2,2.8940743E-2,4.9886968E-2],"split_indices":[4,1,1,2,3,3,1,3,3,2,2,2,1,3,0,0,0,0,0,0,0,0,0,0,0,0,0,0,0],"split_type":[0,0,0,0,0,0,0,0,0,0,0,0,0,0,0,0,0,0,0,0,0,0,0,0,0,0,0,0,0],"sum_hessian":[1.7115802E3,1.1521351E3,5.5944507E2,6.429863E2,5.0914886E2,2.7003516E2,2.8940994E2,4.7654636E2,1.6643996E2,3.6756873E2,1.4158011E2,1.9175835E2,7.82768E1,1.3813365E2,1.5127628E2,4.609418E2,1.5604561E1,7.889192E1,8.754804E1,2.3256157E2,1.3500717E2,7.5265434E1,6.631468E1,1.1159513E2,8.0163216E1,3.7003055E0,7.45765E1,3.8965816E1,9.916784E1],"tree_param":{"num_deleted":"0","num_feature":"9","num_nodes":"29","size_leaf_vector":"1"}},{"base_weights":[-2.6695805E-2,-3.8948855E-1,7.16091E-1,-7.364004E-1,4.1162286E-2,4.2458618E-1,9.972614E-1,-8.572127E-1,-8.452783E-2,-1.8154292E-1,6.156876E-1,1.9364443E-1,9.9550664E-1,8.9177996E-1,5.443728E-2,-4.4831797E-2,-3.889056E-3,-2.128902E-2,2.4085676E-2,-1.3925093E-2,4.2091165E-2,1.9891355E-2,5.2235465E-2,-5.7858573E-3,3.0795489E-2,1.8099679E-2,5.1992882E-2,1.7646879E-2,4.660265E-2],"categories":[],"categories_nodes":[],"categories_segments":[],"categories_sizes":[],"default_left":[0,0,0,0,0,0,0,0,0,0,0,0,0,0,0,0,0,0,0,0,0,0,0,0,0,0,0,0,0],"id":40,"left_children":[1,3,5,7,9,11,13,15,17,19,21,23,25,27,-1,-1,-1,-1,-1,-1,-1,-1,-1,-1,-1,-1,-1,-1,-1],"loss_changes":[4.5385095E2,1.6907085E2,4.4875153E1,4.9284332E1,6.48236E1,3.5814182E1,1.7366333E0,1.6173492E1,1.93542E1,3.647607E1,1.2810974E1,2.5633587E1,1.826683E0,2.6190796E0,0E0,0E0,0E0,0E0,0E0,0E0,0E0,0E0,0E0,0E0,0E0,0E0,0E0,0E0,0E0],"parents":[2147483647,0,0,1,1,2,2,3,3,4,4,5,5,6,6,7,7,8,8,9,9,10,10,11,11,12,12,13,13],"right_children":[2,4,6,8,10,12,14,16,18,20,22,24,26,28,-1,-1,-1,-1,-1,-1,-1,-1,-1,-1,-1,-1,-1,-1,-1],"split_conditions":[1E0,5E0,6E0,2E0,2E0,2E0,8E0,2E0,1E0,2E0,8E0,1E0,-2.3665643E-1,-1.7105367E2,5.443728E-2,-4.4831797E-2,-3.889056E-3,-2.128902E-2,2.4085676E-2,-1.3925093E-2,4.2091165E-2,1.9891355E-2,5.2235465E-2,-5.7858573E-3,3.0795489E-2,1.8099679E-2,5.1992882E-2,1.7646879E-2,4.660265E-2],"split_indices":[4,1,1,3,3,3,1,2,2,2,1,2,7,8,0,0,0,0,0,0,0,0,0,0,0,0,0,0,0],"split_type":[0,0,0,0,0,0,0,0,0,0,0,0,0,0,0,0,0,0,0,0,0,0,0,0,0,0,0,0,0],"sum_hessian":[1.6821526E3,1.1304786E3,5.5167395E2,6.2571906E2,5.047596E2,2.7209164E2,2.795823E2,5.276197E2,9.8099335E1,3.6424866E2,1.4051094E2,1.9468091E2,7.741075E1,1.3484909E2,1.4473323E2,5.0207468E2,2.554503E1,6.1364994E1,3.673434E1,3.333895E2,3.0859167E1,9.446711E1,4.6043823E1,1.127809E2,8.19E1,5.6642427E0,7.1746506E1,1.0056712E1,1.2479237E2],"tree_param":{"num_deleted":"0","num_feature":"9","num_nodes":"29","size_leaf_vector":"1"}},{"base_weights":[-3.3697847E-2,-3.7732497E-1,6.733823E-1,-7.407057E-1,6.1515067E-2,3.6312136E-1,9.805859E-1,-8.884783E-1,-3.3317322E-1,-2.091891E-1,4.6619406E-1,8.208624E-2,7.3290503E-1,8.426244E-1,5.3967055E-2,-4.7627073E-2,-3.476989E-2,-3.710764E-2,-2.1830755E-3,-1.6709542E-2,3.554098E-2,1.3487773E-2,4.8275184E-2,-1.8256262E-2,1.0696002E-2,-2.2019297E-2,3.947748E-2,3.1401806E-2,5.2897215E-2],"categories":[],"categories_nodes":[],"categories_segments":[],"categories_sizes":[],"default_left":[0,0,0,0,0,0,0,0,0,0,0,0,0,0,0,0,0,0,0,0,0,0,0,0,0,0,0,0,0],"id":41,"left_children":[1,3,5,7,9,11,13,15,17,19,21,23,25,27,-1,-1,-1,-1,-1,-1,-1,-1,-1,-1,-1,-1,-1,-1,-1],"loss_changes":[4.0119836E2,1.7723326E2,5.1116547E1,3.631305E1,5.5335148E1,2.802679E1,2.779541E0,4.8485107E0,1.931117E1,3.5062363E1,1.9593002E1,9.198149E0,8.095707E0,4.765602E0,0E0,0E0,0E0,0E0,0E0,0E0,0E0,0E0,0E0,0E0,0E0,0E0,0E0,0E0,0E0],"parents":[2147483647,0,0,1,1,2,2,3,3,4,4,5,5,6,6,7,7,8,8,9,9,10,10,11,11,12,12,13,13],"right_children":[2,4,6,8,10,12,14,16,18,20,22,24,26,28,-1,-1,-1,-1,-1,-1,-1,-1,-1,-1,-1,-1,-1,-1,-1],"split_conditions":[1E0,5E0,6E0,1E0,1E0,1E0,1E0,4E0,8E0,9E0,2E0,3E0,6E0,8E0,5.3967055E-2,-4.7627073E-2,-3.476989E-2,-3.710764E-2,-2.1830755E-3,-1.6709542E-2,3.554098E-2,1.3487773E-2,4.8275184E-2,-1.8256262E-2,1.0696002E-2,-2.2019297E-2,3.947748E-2,3.1401806E-2,5.2897215E-2],"split_indices":[4,1,1,2,2,2,2,1,5,1,2,1,5,1,0,0,0,0,0,0,0,0,0,0,0,0,0,0,0],"split_type":[0,0,0,0,0,0,0,0,0,0,0,0,0,0,0,0,0,0,0,0,0,0,0,0,0,0,0,0,0],"sum_hessian":[1.6491672E3,1.1101313E3,5.390358E2,6.069006E2,5.0323087E2,2.69269E2,2.697668E2,4.4453183E2,1.6236873E2,3.0181747E2,2.0141338E2,1.5368817E2,1.15580826E2,1.16520035E2,1.5324677E2,3.308305E2,1.13701324E2,6.66508E1,9.5717926E1,2.6627536E2,3.5542118E1,1.456514E2,5.5761974E1,3.4587975E1,1.191002E2,5.0110526E0,1.1056978E2,6.0320877E1,5.6199158E1],"tree_param":{"num_deleted":"0","num_feature":"9","num_nodes":"29","size_leaf_vector":"1"}},{"base_weights":[-3.8694736E-2,-3.784157E-1,6.56215E-1,-7.456484E-1,5.3785894E-2,3.6341226E-1,9.6084803E-1,-8.512848E-1,-1.8086313E-1,-1.6936418E-1,6.3210773E-1,1.5733974E-1,8.978335E-1,7.3459184E-1,1.036071E0,-4.3326195E-2,5.079616E-2,-1.5663693E-2,4.91482E-2,-2.1721816E-2,1.4828189E-2,1.977182E-2,4.6240244E-2,-5.6641013E-3,2.7239814E-2,-1.7100994E-2,4.6506565E-2,2.2501197E-2,5.525617E-2,1.4491938E-2,5.202188E-2],"categories":[],"categories_nodes":[],"categories_segments":[],"categories_sizes":[],"default_left":[0,0,0,0,0,0,0,0,0,0,0,0,0,0,0,0,0,0,0,0,0,0,0,0,0,0,0,0,0,0,0],"id":42,"left_children":[1,3,5,7,9,11,13,15,17,19,21,23,25,27,29,-1,-1,-1,-1,-1,-1,-1,-1,-1,-1,-1,-1,-1,-1,-1,-1],"loss_changes":[3.7934384E2,1.7132692E2,4.6714767E1,3.4659485E1,6.420407E1,2.9665455E1,3.6297607E0,1.4860077E1,1.4672222E1,4.4488678E1,9.228462E0,2.0670185E1,3.3257484E0,6.652401E0,3.2141113E-1,0E0,0E0,0E0,0E0,0E0,0E0,0E0,0E0,0E0,0E0,0E0,0E0,0E0,0E0,0E0,0E0],"parents":[2147483647,0,0,1,1,2,2,3,3,4,4,5,5,6,6,7,7,8,8,9,9,10,10,11,11,12,12,13,13,14,14],"right_children":[2,4,6,8,10,12,14,16,18,20,22,24,26,28,30,-1,-1,-1,-1,-1,-1,-1,-1,-1,-1,-1,-1,-1,-1,-1,-1],"split_conditions":[1E0,5E0,6E0,2E0,2E0,2E0,1E0,3E0,2E0,1E0,1E0,1E0,-3.4943455E-1,8E0,-4.2603424E-1,-4.3326195E-2,5.079616E-2,-1.5663693E-2,4.91482E-2,-2.1721816E-2,1.4828189E-2,1.977182E-2,4.6240244E-2,-5.6641013E-3,2.7239814E-2,-1.7100994E-2,4.6506565E-2,2.2501197E-2,5.525617E-2,1.4491938E-2,5.202188E-2],"split_indices":[4,1,1,3,3,3,3,2,2,2,2,2,7,1,7,0,0,0,0,0,0,0,0,0,0,0,0,0,0,0,0],"split_type":[0,0,0,0,0,0,0,0,0,0,0,0,0,0,0,0,0,0,0,0,0,0,0,0,0,0,0,0,0,0,0],"sum_hessian":[1.6048239E3,1.0781859E3,5.26638E2,5.825122E2,4.9567368E2,2.6965137E2,2.569866E2,4.9030005E2,9.221214E1,3.5817584E2,1.3749785E2,1.955441E2,7.410727E1,6.680762E1,1.90179E2,4.868625E2,3.4375765E0,8.344884E1,8.763302E0,2.2833873E2,1.2983711E2,7.732489E1,6.0172955E1,1.15547066E2,7.999704E1,1.6379954E0,7.246928E1,3.9039696E1,2.7767918E1,1.4983258E0,1.8868066E2],"tree_param":{"num_deleted":"0","num_feature":"9","num_nodes":"31","size_leaf_vector":"1"}},{"base_weights":[-4.0530194E-2,-3.7694028E-1,6.52249E-1,-7.7090806E-1,-2.2579907E-2,4.2342404E-1,9.911127E-1,-8.6159426E-1,-4.756883E-1,-1.4546406E-1,8.388828E-1,6.195749E-1,-1.414708E-1,1.0313909E0,4.668071E-1,-4.8363484E-2,-3.675396E-2,1.1740445E-2,-3.055996E-2,-1.3133476E-2,3.7008967E-2,2.3624026E-4,4.451888E-2,-1.863305E-2,3.4952745E-2,5.436845E-4,-4.268503E-2,1.4424642E-2,5.177304E-2,-2.259135E-2,4.8065513E-2],"categories":[],"categories_nodes":[],"categories_segments":[],"categories_sizes":[],"default_left":[0,0,0,0,0,0,0,0,0,0,0,0,0,0,0,0,0,0,0,0,0,0,0,0,0,0,0,0,0,0,0],"id":43,"left_children":[1,3,5,7,9,11,13,15,17,19,21,23,25,27,29,-1,-1,-1,-1,-1,-1,-1,-1,-1,-1,-1,-1,-1,-1,-1,-1],"loss_changes":[3.667252E2,1.4784271E2,3.946422E1,1.301651E1,5.925746E1,3.430167E1,3.8811798E0,4.4017334E0,1.1705143E1,5.102989E1,2.9976807E0,1.835006E1,8.7328205E0,2.7885437E-1,7.959188E0,0E0,0E0,0E0,0E0,0E0,0E0,0E0,0E0,0E0,0E0,0E0,0E0,0E0,0E0,0E0,0E0],"parents":[2147483647,0,0,1,1,2,2,3,3,4,4,5,5,6,6,7,7,8,8,9,9,10,10,11,11,12,12,13,13,14,14],"right_children":[2,4,6,8,10,12,14,16,18,20,22,24,26,28,30,-1,-1,-1,-1,-1,-1,-1,-1,-1,-1,-1,-1,-1,-1,-1,-1],"split_conditions":[1E0,9E0,1.2E1,8E0,1E0,4E0,7E0,3E0,2E0,9E0,3E0,5E0,6E0,-4.2603424E-1,1.5E1,-4.8363484E-2,-3.675396E-2,1.1740445E-2,-3.055996E-2,-1.3133476E-2,3.7008967E-2,2.3624026E-4,4.451888E-2,-1.863305E-2,3.4952745E-2,5.436845E-4,-4.268503E-2,1.4424642E-2,5.177304E-2,-2.259135E-2,4.8065513E-2],"split_indices":[4,5,5,5,6,0,0,1,0,1,1,5,0,7,5,0,0,0,0,0,0,0,0,0,0,0,0,0,0,0,0],"split_type":[0,0,0,0,0,0,0,0,0,0,0,0,0,0,0,0,0,0,0,0,0,0,0,0,0,0,0,0,0,0,0],"sum_hessian":[1.5714818E3,1.05812E3,5.133619E2,5.0050134E2,5.5761865E2,3.077779E2,2.0558397E2,3.814181E2,1.1908325E2,4.887339E2,6.888476E1,2.2837979E2,7.93981E1,1.900192E2,1.5564782E1,2.0420471E2,1.7721336E2,1.8957E1,1.0012625E2,4.3223553E2,5.6498344E1,4.0686617E0,6.481609E1,1.6663406E1,2.1171638E2,6.621877E1,1.3179329E1,1.4270333E0,1.8859216E2,5.476828E0,1.0087954E1],"tree_param":{"num_deleted":"0","num_feature":"9","num_nodes":"31","size_leaf_vector":"1"}},{"base_weights":[-3.8474716E-2,-3.6758405E-1,6.3299596E-1,-7.718253E-1,-9.900495E-3,4.05755E-1,9.765074E-1,-8.904364E-1,-5.233709E-1,-1.3363469E-1,8.0584806E-1,5.892086E-1,-1.3237444E-1,1.0252978E0,4.0149653E-1,-4.8150606E-2,-3.0064104E-2,-3.171385E-2,-3.5211574E-3,-1.2193668E-2,3.4482084E-2,-8.965793E-3,4.714016E-2,2.0836534E-3,3.4298636E-2,1.8160716E-4,-3.975568E-2,1.595697E-2,5.1471468E-2,-2.3362024E-2,4.7526997E-2],"categories":[],"categories_nodes":[],"categories_segments":[],"categories_sizes":[],"default_left":[0,0,0,0,0,0,0,0,0,0,0,0,0,0,0,0,0,0,0,0,0,0,0,0,0,0,0,0,0,0,0],"id":44,"left_children":[1,3,5,7,9,11,13,15,17,19,21,23,25,27,29,-1,-1,-1,-1,-1,-1,-1,-1,-1,-1,-1,-1,-1,-1,-1,-1],"loss_changes":[3.4012802E2,1.4932643E2,3.9123077E1,1.3821777E1,5.551869E1,3.0327606E1,5.2233734E0,6.277893E0,7.9472885E0,4.3507088E1,9.943481E0,1.2088058E1,7.098302E0,2.0974731E-1,8.721319E0,0E0,0E0,0E0,0E0,0E0,0E0,0E0,0E0,0E0,0E0,0E0,0E0,0E0,0E0,0E0,0E0],"parents":[2147483647,0,0,1,1,2,2,3,3,4,4,5,5,6,6,7,7,8,8,9,9,10,10,11,11,12,12,13,13,14,14],"right_children":[2,4,6,8,10,12,14,16,18,20,22,24,26,28,30,-1,-1,-1,-1,-1,-1,-1,-1,-1,-1,-1,-1,-1,-1,-1,-1],"split_conditions":[1E0,9E0,1.2E1,4E0,2E0,4E0,7E0,1E0,1E0,9E0,4E0,6E0,6E0,-4.2603424E-1,1.5E1,-4.8150606E-2,-3.0064104E-2,-3.171385E-2,-3.5211574E-3,-1.2193668E-2,3.4482084E-2,-8.965793E-3,4.714016E-2,2.0836534E-3,3.4298636E-2,1.8160716E-4,-3.975568E-2,1.595697E-2,5.1471468E-2,-2.3362024E-2,4.7526997E-2],"split_indices":[4,5,5,1,2,0,0,2,2,1,1,5,0,7,5,0,0,0,0,0,0,0,0,0,0,0,0,0,0,0,0],"split_type":[0,0,0,0,0,0,0,0,0,0,0,0,0,0,0,0,0,0,0,0,0,0,0,0,0,0,0,0,0,0,0],"sum_hessian":[1.5370765E3,1.0318073E3,5.0526926E2,4.838356E2,5.479717E2,3.0541272E2,1.9985655E2,3.2574323E2,1.5809239E2,4.7652737E2,7.1444336E1,2.2769452E2,7.771821E1,1.83503E2,1.635353E1,2.5852484E2,6.721835E1,1.2667514E2,3.1417244E1,4.2087497E2,5.5652393E1,8.68206E0,6.2762276E1,3.441114E1,1.9328337E2,6.53099E1,1.2408306E1,1.5225194E0,1.819805E2,6.3906946E0,9.962837E0],"tree_param":{"num_deleted":"0","num_feature":"9","num_nodes":"31","size_leaf_vector":"1"}},{"base_weights":[-2.5676252E-2,-3.3630374E-1,6.160902E-1,-7.326073E-1,1.6547041E-2,4.1463587E-1,9.947055E-1,-8.7471896E-1,-3.0539927E-1,-5.742884E-1,2.694092E-1,2.0952053E-1,9.146993E-1,2.2315818E-1,1.0070965E0,-4.860198E-2,-3.600643E-2,-1.7319337E-2,3.3718202E-2,-3.338971E-2,1.8746456E-2,6.26276E-3,3.93329E-2,-1.2765673E-2,1.5685407E-2,-1.4420721E-2,4.7139313E-2,-1.7317602E-2,4.513996E-2,1.5420242E-2,5.058443E-2],"categories":[],"categories_nodes":[],"categories_segments":[],"categories_sizes":[],"default_left":[0,0,0,0,0,0,0,0,0,0,0,0,0,0,0,0,0,0,0,0,0,0,0,0,0,0,0,0,0,0,0],"id":45,"left_children":[1,3,5,7,9,11,13,15,17,19,21,23,25,27,29,-1,-1,-1,-1,-1,-1,-1,-1,-1,-1,-1,-1,-1,-1,-1,-1],"loss_changes":[3.0047757E2,1.420328E2,3.7085327E1,2.8775848E1,8.0568306E1,3.289761E1,1.400711E0,4.692566E0,5.090617E0,1.4596653E1,2.8057314E1,1.1221989E1,3.432701E0,1.8501264E0,2.239685E-1,0E0,0E0,0E0,0E0,0E0,0E0,0E0,0E0,0E0,0E0,0E0,0E0,0E0,0E0,0E0,0E0],"parents":[2147483647,0,0,1,1,2,2,3,3,4,4,5,5,6,6,7,7,8,8,9,9,10,10,11,11,12,12,13,13,14,14],"right_children":[2,4,6,8,10,12,14,16,18,20,22,24,26,28,30,-1,-1,-1,-1,-1,-1,-1,-1,-1,-1,-1,-1,-1,-1,-1,-1],"split_conditions":[1E0,1E0,7E0,6E0,4E0,2E0,9E0,4E0,1.6E1,3E0,8E0,3E0,6E0,1.20370716E-1,-4.2603424E-1,-4.860198E-2,-3.600643E-2,-1.7319337E-2,3.3718202E-2,-3.338971E-2,1.8746456E-2,6.26276E-3,3.93329E-2,-1.2765673E-2,1.5685407E-2,-1.4420721E-2,4.7139313E-2,-1.7317602E-2,4.513996E-2,1.5420242E-2,5.058443E-2],"split_indices":[4,3,1,1,1,3,5,1,5,3,1,1,5,7,7,0,0,0,0,0,0,0,0,0,0,0,0,0,0,0,0],"split_type":[0,0,0,0,0,0,0,0,0,0,0,0,0,0,0,0,0,0,0,0,0,0,0,0,0,0,0,0,0,0,0],"sum_hessian":[1.5052448E3,1.0146232E3,4.9062152E2,4.7737943E2,5.3724384E2,3.215995E2,1.6902205E2,3.5743155E2,1.1994788E2,1.6063483E2,3.76609E2,2.2906209E2,9.2537384E1,2.9720714E0,1.6604999E2,2.1610027E2,1.4133127E2,1.1575197E2,4.1959143E0,1.4649985E2,1.413497E1,2.9549777E2,8.111124E1,4.167559E1,1.873865E2,1.8995755E0,9.063781E1,1.8838637E0,1.0882077E0,1.5292522E0,1.6452074E2],"tree_param":{"num_deleted":"0","num_feature":"9","num_nodes":"31","size_leaf_vector":"1"}},{"base_weights":[-1.265797E-2,-3.230088E-1,6.264402E-1,-8.190527E-1,-3.7652764E-2,3.7460473E-1,9.125086E-1,-8.5808843E-1,6.849993E-2,-1.4417735E-1,8.702845E-1,8.52673E-2,7.662499E-1,7.676632E-1,5.2265294E-2,-4.6838034E-2,-3.0504003E-2,5.0731253E-2,-5.3632017E-3,-1.1944024E-2,4.2415064E-2,4.5077212E-2,-2.0638052E-2,-4.6784896E-4,4.555129E-2,3.02721E-2,5.302715E-2,2.7940813E-2,4.7830522E-2],"categories":[],"categories_nodes":[],"categories_segments":[],"categories_sizes":[],"default_left":[0,0,0,0,0,0,0,0,0,0,0,0,0,0,0,0,0,0,0,0,0,0,0,0,0,0,0,0,0],"id":46,"left_children":[1,3,5,7,9,11,13,15,17,19,21,23,25,27,-1,-1,-1,-1,-1,-1,-1,-1,-1,-1,-1,-1,-1,-1,-1],"loss_changes":[2.9428473E2,1.413331E2,3.459807E1,1.2692841E1,6.1544266E1,2.9354763E1,3.551712E0,6.2452393E0,2.817544E0,5.3702953E1,3.0522919E0,1.1763443E1,4.572365E0,3.886528E0,0E0,0E0,0E0,0E0,0E0,0E0,0E0,0E0,0E0,0E0,0E0,0E0,0E0,0E0,0E0],"parents":[2147483647,0,0,1,1,2,2,3,3,4,4,5,5,6,6,7,7,8,8,9,9,10,10,11,11,12,12,13,13],"right_children":[2,4,6,8,10,12,14,16,18,20,22,24,26,28,-1,-1,-1,-1,-1,-1,-1,-1,-1,-1,-1,-1,-1,-1,-1],"split_conditions":[1E0,4E0,6E0,1E0,2E0,1E0,8E0,1E0,-3.1062943E-1,1E0,5.6229526E-1,1E0,2E0,1E0,5.2265294E-2,-4.6838034E-2,-3.0504003E-2,5.0731253E-2,-5.3632017E-3,-1.1944024E-2,4.2415064E-2,4.5077212E-2,-2.0638052E-2,-4.6784896E-4,4.555129E-2,3.02721E-2,5.302715E-2,2.7940813E-2,4.7830522E-2],"split_indices":[4,1,1,6,2,2,1,2,7,6,7,6,2,2,0,0,0,0,0,0,0,0,0,0,0,0,0,0,0],"split_type":[0,0,0,0,0,0,0,0,0,0,0,0,0,0,0,0,0,0,0,0,0,0,0,0,0,0,0,0,0],"sum_hessian":[1.4816836E3,9.976917E2,4.8399194E2,3.6365967E2,6.3403204E2,2.5862515E2,2.2536678E2,3.4837106E2,1.5288618E1,5.6820776E2,6.5824295E1,1.4944025E2,1.0918491E2,1.1103678E2,1.1433E2,2.6236694E2,8.600411E1,1.6475133E0,1.3641106E1,5.1940497E2,4.880275E1,6.454898E1,1.2753104E0,1.3496336E2,1.4476884E1,7.258191E1,3.6603004E1,5.462086E1,5.641592E1],"tree_param":{"num_deleted":"0","num_feature":"9","num_nodes":"29","size_leaf_vector":"1"}},{"base_weights":[-2.9033285E-2,-3.316088E-1,5.976863E-1,-8.0630255E-1,-6.2790245E-2,3.3526987E-1,9.014294E-1,-8.500255E-1,1.784156E-1,-1.6210556E-1,8.429996E-1,8.651476E-2,6.7031485E-1,7.3559886E-1,5.1522177E-2,-4.7130737E-2,-2.8177932E-2,3.8392168E-2,-1.1671499E-2,-1.3039072E-2,3.869445E-2,4.443545E-2,-4.183272E-2,-5.8365025E-4,4.8478585E-2,2.532874E-2,4.9134884E-2,2.3625279E-2,5.1625073E-2],"categories":[],"categories_nodes":[],"categories_segments":[],"categories_sizes":[],"default_left":[0,0,0,0,0,0,0,0,0,0,0,0,0,0,0,0,0,0,0,0,0,0,0,0,0,0,0,0,0],"id":47,"left_children":[1,3,5,7,9,11,13,15,17,19,21,23,25,27,-1,-1,-1,-1,-1,-1,-1,-1,-1,-1,-1,-1,-1,-1,-1],"loss_changes":[2.7511066E2,1.2479268E2,3.735022E1,1.5377502E1,5.642454E1,2.1196873E1,3.913681E0,8.4544525E0,4.029558E0,5.235934E1,5.5027313E0,1.2801067E1,5.0527954E0,7.248577E0,0E0,0E0,0E0,0E0,0E0,0E0,0E0,